{"learner":{"attributes":{"best_iteration":"99","best_ntree_limit":"100","scikit_learn":"{\"use_label_encoder\": false, \"n_estimators\": 100, \"objective\": \"multi:softprob\", \"max_depth\": null, \"learning_rate\": null, \"verbosity\": null, \"booster\": null, \"tree_method\": null, \"gamma\": null, \"min_child_weight\": null, \"max_delta_step\": null, \"subsample\": null, \"colsample_bytree\": null, \"colsample_bylevel\": null, \"colsample_bynode\": null, \"reg_alpha\": null, \"reg_lambda\": null, \"scale_pos_weight\": null, \"base_score\": null, \"missing\": NaN, \"num_parallel_tree\": null, \"random_state\": null, \"n_jobs\": null, \"monotone_constraints\": null, \"interaction_constraints\": null, \"importance_type\": null, \"gpu_id\": null, \"validate_parameters\": null, \"predictor\": null, \"enable_categorical\": false, \"classes_\": [0, 1, 2, 3, 4, 5, 6, 7, 8, 9], \"n_classes_\": 10, \"_estimator_type\": \"classifier\"}"},"feature_names":[],"feature_types":[],"gradient_booster":{"model":{"gbtree_model_param":{"num_trees":"1000","size_leaf_vector":"0"},"tree_info":[0,1,2,3,4,5,6,7,8,9,0,1,2,3,4,5,6,7,8,9,0,1,2,3,4,5,6,7,8,9,0,1,2,3,4,5,6,7,8,9,0,1,2,3,4,5,6,7,8,9,0,1,2,3,4,5,6,7,8,9,0,1,2,3,4,5,6,7,8,9,0,1,2,3,4,5,6,7,8,9,0,1,2,3,4,5,6,7,8,9,0,1,2,3,4,5,6,7,8,9,0,1,2,3,4,5,6,7,8,9,0,1,2,3,4,5,6,7,8,9,0,1,2,3,4,5,6,7,8,9,0,1,2,3,4,5,6,7,8,9,0,1,2,3,4,5,6,7,8,9,0,1,2,3,4,5,6,7,8,9,0,1,2,3,4,5,6,7,8,9,0,1,2,3,4,5,6,7,8,9,0,1,2,3,4,5,6,7,8,9,0,1,2,3,4,5,6,7,8,9,0,1,2,3,4,5,6,7,8,9,0,1,2,3,4,5,6,7,8,9,0,1,2,3,4,5,6,7,8,9,0,1,2,3,4,5,6,7,8,9,0,1,2,3,4,5,6,7,8,9,0,1,2,3,4,5,6,7,8,9,0,1,2,3,4,5,6,7,8,9,0,1,2,3,4,5,6,7,8,9,0,1,2,3,4,5,6,7,8,9,0,1,2,3,4,5,6,7,8,9,0,1,2,3,4,5,6,7,8,9,0,1,2,3,4,5,6,7,8,9,0,1,2,3,4,5,6,7,8,9,0,1,2,3,4,5,6,7,8,9,0,1,2,3,4,5,6,7,8,9,0,1,2,3,4,5,6,7,8,9,0,1,2,3,4,5,6,7,8,9,0,1,2,3,4,5,6,7,8,9,0,1,2,3,4,5,6,7,8,9,0,1,2,3,4,5,6,7,8,9,0,1,2,3,4,5,6,7,8,9,0,1,2,3,4,5,6,7,8,9,0,1,2,3,4,5,6,7,8,9,0,1,2,3,4,5,6,7,8,9,0,1,2,3,4,5,6,7,8,9,0,1,2,3,4,5,6,7,8,9,0,1,2,3,4,5,6,7,8,9,0,1,2,3,4,5,6,7,8,9,0,1,2,3,4,5,6,7,8,9,0,1,2,3,4,5,6,7,8,9,0,1,2,3,4,5,6,7,8,9,0,1,2,3,4,5,6,7,8,9,0,1,2,3,4,5,6,7,8,9,0,1,2,3,4,5,6,7,8,9,0,1,2,3,4,5,6,7,8,9,0,1,2,3,4,5,6,7,8,9,0,1,2,3,4,5,6,7,8,9,0,1,2,3,4,5,6,7,8,9,0,1,2,3,4,5,6,7,8,9,0,1,2,3,4,5,6,7,8,9,0,1,2,3,4,5,6,7,8,9,0,1,2,3,4,5,6,7,8,9,0,1,2,3,4,5,6,7,8,9,0,1,2,3,4,5,6,7,8,9,0,1,2,3,4,5,6,7,8,9,0,1,2,3,4,5,6,7,8,9,0,1,2,3,4,5,6,7,8,9,0,1,2,3,4,5,6,7,8,9,0,1,2,3,4,5,6,7,8,9,0,1,2,3,4,5,6,7,8,9,0,1,2,3,4,5,6,7,8,9,0,1,2,3,4,5,6,7,8,9,0,1,2,3,4,5,6,7,8,9,0,1,2,3,4,5,6,7,8,9,0,1,2,3,4,5,6,7,8,9,0,1,2,3,4,5,6,7,8,9,0,1,2,3,4,5,6,7,8,9,0,1,2,3,4,5,6,7,8,9,0,1,2,3,4,5,6,7,8,9,0,1,2,3,4,5,6,7,8,9,0,1,2,3,4,5,6,7,8,9,0,1,2,3,4,5,6,7,8,9,0,1,2,3,4,5,6,7,8,9,0,1,2,3,4,5,6,7,8,9,0,1,2,3,4,5,6,7,8,9,0,1,2,3,4,5,6,7,8,9,0,1,2,3,4,5,6,7,8,9,0,1,2,3,4,5,6,7,8,9,0,1,2,3,4,5,6,7,8,9,0,1,2,3,4,5,6,7,8,9,0,1,2,3,4,5,6,7,8,9,0,1,2,3,4,5,6,7,8,9,0,1,2,3,4,5,6,7,8,9,0,1,2,3,4,5,6,7,8,9,0,1,2,3,4,5,6,7,8,9,0,1,2,3,4,5,6,7,8,9,0,1,2,3,4,5,6,7,8,9,0,1,2,3,4,5,6,7,8,9,0,1,2,3,4,5,6,7,8,9,0,1,2,3,4,5,6,7,8,9],"trees":[{"base_weights":[4.2121235E-2,1.7032967E0,-6.875368E-2,1.9867548E-1,3.5221674E0,3.17626E-1,-4.3447497E-1,8.860759E-1,-4.1237116E-1,1.587047E-1,2.0070422E0,1.7374516E-1,-5.301795E-1,1.1538461E0,1.9230768E-1,-4.0983608E-1,5.105182E-1,2.8773584E0,-3.2786888E-1,6.9536424E-1,-4.5112783E-1,-1.546392E-1,-5.460459E-1,-4.8726955E-1,4.198473E-1,2.173913E0,2.798191E-1,3.4177215E0,6.730769E-1,-1.7241381E-1,1.6442953E0,-3.5714287E-1,1.9230768E-1,1.3274336E-1,-5.297398E-1,2.9865773E0,4.198473E-1,2.8208725E-2,1.1346633E0,-3.6912754E-1,1.9230768E-1],"categories":[],"categories_nodes":[],"categories_segments":[],"categories_sizes":[],"default_left":[true,true,true,true,false,true,true,true,false,true,true,true,true,false,false,true,true,true,false,true,false,true,false,true,false,true,true,false,false,true,false,false,false,false,false,false,false,false,false,false,false],"id":0,"left_children":[1,3,5,7,-1,9,11,13,-1,15,17,19,21,-1,-1,23,25,27,-1,29,-1,31,-1,33,-1,35,37,-1,-1,39,-1,-1,-1,-1,-1,-1,-1,-1,-1,-1,-1],"loss_changes":[2.6790443E1,2.4204306E1,1.9457531E1,2.902396E0,0E0,1.7686026E1,4.2051916E0,3.6514115E-1,0E0,1.2686496E1,1.2485785E1,3.690495E0,2.8081512E-1,0E0,0E0,1.7721634E0,1.4350027E1,2.7499275E0,0E0,5.257207E0,0E0,3.4128243E-1,0E0,6.701646E-1,0E0,5.303238E0,7.5777936E0,0E0,0E0,3.622737E-1,0E0,0E0,0E0,0E0,0E0,0E0,0E0,0E0,0E0,0E0,0E0],"parents":[2147483647,0,0,1,1,2,2,3,3,5,5,6,6,7,7,9,9,10,10,11,11,12,12,15,15,16,16,17,17,19,19,21,21,23,23,25,25,26,26,29,29],"right_children":[2,4,6,8,-1,10,12,14,-1,16,18,20,22,-1,-1,24,26,28,-1,30,-1,32,-1,34,-1,36,38,-1,-1,40,-1,-1,-1,-1,-1,-1,-1,-1,-1,-1,-1],"split_conditions":[-1.1937519E1,-8.704659E0,2.204995E3,-1.4009846E1,1.0566503E0,1.2448506E1,-1.6397402E1,2.452213E3,-1.23711355E-1,1.08232E1,1.6759797E3,1.370791E-1,-1.4965733E1,3.4615386E-1,5.7692308E-2,1.4074886E-1,-4.2961913E-1,1.4158945E2,-9.8360665E-2,1.2077932E-1,-1.3533835E-1,4.533346E-1,-1.6381377E-1,-1.4917433E1,1.259542E-1,-9.9314E0,1.6172254E-1,1.0253165E0,2.0192309E-1,4.1631496E-1,4.932886E-1,-1.07142866E-1,5.7692308E-2,3.982301E-2,-1.5892194E-1,8.959732E-1,1.259542E-1,8.462618E-3,3.4039903E-1,-1.1073827E-1,5.7692308E-2],"split_indices":[20,8,3,16,0,10,12,2,0,11,3,5,14,0,0,1,17,7,0,5,0,0,0,14,0,14,1,0,0,0,0,0,0,0,0,0,0,0,0,0,0],"split_type":[0,0,0,0,0,0,0,0,0,0,0,0,0,0,0,0,0,0,0,0,0,0,0,0,0,0,0,0,0,0,0,0,0,0,0,0,0,0,0,0,0],"sum_hessian":[1.4381999E2,8.099999E0,1.3572E2,5.04E0,3.06E0,6.606E1,6.9659996E1,2.1599998E0,2.8799999E0,6.1379997E1,4.68E0,9.36E0,6.03E1,1.0799999E0,1.0799999E0,2.34E1,3.798E1,3.2399998E0,1.4399999E0,5.04E0,4.3199997E0,2.8799999E0,5.742E1,2.1779999E1,1.6199999E0,3.6E0,3.4379997E1,2.1599998E0,1.0799999E0,3.06E0,1.9799999E0,1.8E0,1.0799999E0,1.26E0,2.0519999E1,1.9799999E0,1.6199999E0,2.7359999E1,7.0199995E0,1.9799999E0,1.0799999E0],"tree_param":{"num_deleted":"0","num_feature":"26","num_nodes":"41","size_leaf_vector":"0"}},{"base_weights":[6.28366E-2,3.604369E0,-3.888975E-1,4.172414E0,-3.6912754E-1,4.9125168E-1,-4.987877E-1,4.329359E0,1.1538461E0,2.2850678E0,-2.4475527E-1,1.1278194E-1,-5.2356964E-1,-2.8846154E-1,3.2035928E0,5.08982E-1,-4.9450552E-1,-4.2452833E-1,1.1538461E0,1.9230768E-1,-5.3234017E-1,1.1538461E0,-3.0973452E-1,-1.8867926E-1,-5.409959E-1,1.9230768E-1,-3.7974685E-1,-3.1914896E-1,-5.5006915E-1],"categories":[],"categories_nodes":[],"categories_segments":[],"categories_sizes":[],"default_left":[true,true,true,true,false,true,true,false,false,true,true,true,true,false,false,true,false,false,false,false,true,false,false,true,true,false,false,false,false],"id":1,"left_children":[1,3,5,7,-1,9,11,-1,-1,13,15,17,19,-1,-1,21,-1,-1,-1,-1,23,-1,-1,25,27,-1,-1,-1,-1],"loss_changes":[2.3308925E2,3.873755E1,1.2754763E1,1.8739624E0,0E0,2.0178362E1,1.8092518E0,0E0,0E0,1.1372334E1,2.4052296E0,3.4657123E0,8.003025E-1,0E0,0E0,2.1207755E0,0E0,0E0,0E0,0E0,2.2537422E-1,0E0,0E0,3.816759E-1,3.9503098E-2,0E0,0E0,0E0,0E0],"parents":[2147483647,0,0,1,1,2,2,3,3,5,5,6,6,9,9,10,10,11,11,12,12,15,15,20,20,23,23,24,24],"right_children":[2,4,6,8,-1,10,12,-1,-1,14,16,18,20,-1,-1,22,-1,-1,-1,-1,24,-1,-1,26,28,-1,-1,-1,-1],"split_conditions":[4.487392E-2,1.9795989E3,1.6524111E3,1.7900047E1,-1.1073827E-1,2.6632572E1,-2.9066064E0,1.2988077E0,3.4615386E-1,5.053862E-2,-2.7150806E1,9.902359E-2,-5.298007E0,-8.6538464E-2,9.6107787E-1,3.2093135E-1,-1.4835167E-1,-1.2735851E-1,3.4615386E-1,5.7692308E-2,-3.5098114E0,3.4615386E-1,-9.292036E-2,3.3310238E-1,-2.283456E2,5.7692308E-2,-1.13924064E-1,-9.574469E-2,-1.6502075E-1],"split_indices":[1,3,3,11,0,9,15,0,0,5,8,5,11,0,0,0,0,0,0,0,13,0,0,0,6,0,0,0,0],"split_type":[0,0,0,0,0,0,0,0,0,0,0,0,0,0,0,0,0,0,0,0,0,0,0,0,0,0,0,0,0],"sum_hessian":[1.4381999E2,1.548E1,1.2834E2,1.3499999E1,1.9799999E0,1.386E1,1.14479996E2,1.2419999E1,1.0799999E0,3.4199998E0,1.044E1,4.3199997E0,1.10159996E2,1.0799999E0,2.34E0,2.34E0,8.099999E0,3.2399998E0,1.0799999E0,1.0799999E0,1.09079994E2,1.0799999E0,1.26E0,3.2399998E0,1.0584E2,1.0799999E0,2.1599998E0,5.58E0,1.00259995E2],"tree_param":{"num_deleted":"0","num_feature":"26","num_nodes":"29","size_leaf_vector":"0"}},{"base_weights":[-4.074025E-2,2.883625E-1,-4.1532144E-1,1.007727E0,-1.8689628E-1,7.1428573E-1,-4.5673805E-1,-4.577465E-1,1.2850645E0,-5.281343E-1,6.3469656E-2,-5.2842695E-1,-1.8626451E-8,-2.7272728E-1,1.6179159E0,2.4025384E-1,-4.7945207E-1,1.3274336E-1,-5.456491E-1,-4.878049E-1,1.4285715E0,1.9230768E-1,-4.298643E-1,2.0387244E0,-7.518799E-2,-9.202456E-2,1.0059172E0,1.2171053E0,3.28125E0,4.9180326E-1,-4.1237116E-1,-4.7337282E-1,1.612903E-1,-3.6912754E-1,1.6527196E0],"categories":[],"categories_nodes":[],"categories_segments":[],"categories_sizes":[],"default_left":[true,true,true,true,true,false,true,false,true,false,true,true,true,true,true,true,false,false,false,false,false,false,false,true,true,true,true,false,false,false,false,false,false,false,false],"id":2,"left_children":[1,3,5,7,9,-1,11,-1,13,-1,15,17,19,21,23,25,-1,-1,-1,-1,-1,-1,-1,27,29,31,33,-1,-1,-1,-1,-1,-1,-1,-1],"loss_changes":[1.7972548E1,2.674591E1,3.5141382E0,1.3211969E1,4.101905E0,0E0,2.1721745E0,0E0,1.4119633E1,0E0,2.837182E0,7.253494E-1,7.665505E0,4.8457423E-1,1.574218E1,5.7049274E0,0E0,0E0,0E0,0E0,0E0,0E0,0E0,1.3933075E1,1.2198826E0,1.6509497E0,6.622289E0,0E0,0E0,0E0,0E0,0E0,0E0,0E0,0E0],"parents":[2147483647,0,0,1,1,2,2,3,3,4,4,6,6,8,8,10,10,11,11,12,12,13,13,14,14,15,15,23,23,24,24,25,25,26,26],"right_children":[2,4,6,8,10,-1,12,-1,14,-1,16,18,20,22,24,26,-1,-1,-1,-1,-1,-1,-1,28,30,32,34,-1,-1,-1,-1,-1,-1,-1,-1],"split_conditions":[3.8735795E-1,-4.9683237E0,-4.6641283E0,-1.7522457E1,2.872979E-1,2.1428573E-1,-2.4802135E1,-1.3732396E-1,7.058591E-2,-1.5844029E-1,1.0024389E1,-4.504242E0,9.106428E0,5.0228532E-2,2.5251816E1,6.3185563E0,-1.4383563E-1,3.982301E-2,-1.6369474E-1,-1.4634147E-1,4.2857146E-1,5.7692308E-2,-1.289593E-1,4.5608772E1,-1.6018929E1,-1.7265419E1,-2.1719171E2,3.651316E-1,9.8437506E-1,1.4754099E-1,-1.23711355E-1,-1.4201185E-1,4.838709E-2,-1.1073827E-1,4.958159E-1],"split_indices":[0,22,19,10,0,0,6,0,1,0,8,23,10,5,11,10,0,0,0,0,0,0,0,9,14,8,6,0,0,0,0,0,0,0,0],"split_type":[0,0,0,0,0,0,0,0,0,0,0,0,0,0,0,0,0,0,0,0,0,0,0,0,0,0,0,0,0,0,0,0,0,0,0],"sum_hessian":[1.4381999E2,7.668E1,6.714E1,3.006E1,4.662E1,1.8E0,6.534E1,4.68E0,2.538E1,1.9259998E1,2.7359999E1,5.6339996E1,9E0,4.5E0,2.088E1,2.106E1,6.2999997E0,1.26E0,5.5079998E1,7.2E0,1.8E0,1.0799999E0,3.4199998E0,1.656E1,4.3199997E0,1.5299999E1,5.7599998E0,1.116E1,5.3999996E0,1.4399999E0,2.8799999E0,5.7599998E0,9.54E0,1.9799999E0,3.7799997E0],"tree_param":{"num_deleted":"0","num_feature":"26","num_nodes":"35","size_leaf_vector":"0"}},{"base_weights":[-2.6930002E-2,-5.108468E-1,2.853598E-1,-5.278174E-1,1.9230768E-1,5.77056E-1,-2.548773E-1,8.1967205E-2,-5.4538804E-1,1.0110804E0,-1.360843E-1,-4.6961328E-1,2.7247937E-2,-1.0899185E-1,1.6993755E0,-2.4574672E-1,8.015267E-1,-5.2291423E-1,1.9230768E-1,8.181818E-1,-4.0275052E-1,1.4285715E0,-4.3478262E-1,1.0384153E0,3.0769231E0,-3.266332E-1,5.7522124E-1,1.226415E0,-3.0973452E-1,-4.9450552E-1,1.9230768E-1,-5.084746E-1,1.9230768E-1,1.07398555E-1,1.7672414E0,1.0176991E0,3.3636365E0,-5.062167E-1,-8.298757E-2,1.835443E0,-2.8846154E-1],"categories":[],"categories_nodes":[],"categories_segments":[],"categories_sizes":[],"default_left":[true,true,true,true,false,true,true,false,false,true,true,true,true,true,true,true,false,false,false,true,true,false,true,true,true,true,false,true,false,false,false,false,false,false,false,false,false,false,false,false,false],"id":3,"left_children":[1,3,5,7,-1,9,11,-1,-1,13,15,17,19,21,23,25,-1,-1,-1,27,29,-1,31,33,35,37,-1,39,-1,-1,-1,-1,-1,-1,-1,-1,-1,-1,-1,-1,-1],"loss_changes":[2.2031301E1,7.835932E-1,1.4118572E1,6.455612E-1,0E0,1.8052622E1,1.9381058E0,0E0,0E0,2.8016163E1,2.5392277E0,7.391467E-1,5.322196E0,7.974681E0,1.7218376E1,1.5930204E0,0E0,0E0,0E0,2.9123545E0,6.5092075E-1,0E0,6.9298816E-1,1.1114832E1,5.679779E-1,8.287096E-1,0E0,4.441287E0,0E0,0E0,0E0,0E0,0E0,0E0,0E0,0E0,0E0,0E0,0E0,0E0,0E0],"parents":[2147483647,0,0,1,1,2,2,3,3,5,5,6,6,9,9,10,10,11,11,12,12,13,13,14,14,15,15,19,19,20,20,22,22,23,23,24,24,25,25,27,27],"right_children":[2,4,6,8,-1,10,12,-1,-1,14,16,18,20,22,24,26,-1,-1,-1,28,30,-1,32,34,36,38,-1,40,-1,-1,-1,-1,-1,-1,-1,-1,-1,-1,-1,-1,-1],"split_conditions":[4.1640996E3,2.3662441E3,1.7875902E-1,-1.9886349E1,5.7692308E-2,4.559777E1,1.1406786E1,2.4590163E-2,-1.6361642E-1,-1.2595062E2,-2.3911108E-1,8.938362E1,3.8088965E0,-7.8789716E0,1.5402038E0,4.711663E0,2.4045803E-1,-1.5687427E-1,5.7692308E-2,-5.522704E-1,5.257207E-1,4.2857146E-1,4.7317958E-1,3.9946014E-1,-1.0086092E0,-1.408848E1,1.7256638E-1,1.1849503E1,-9.292036E-2,-1.4835167E-1,5.7692308E-2,-1.5254238E-1,5.7692308E-2,3.2219566E-2,5.301724E-1,3.0530974E-1,1.009091E0,-1.5186502E-1,-2.4896272E-2,5.5063295E-1,-8.6538464E-2],"split_indices":[4,3,1,16,0,9,13,0,0,6,24,7,21,20,25,25,0,0,0,24,0,0,0,0,19,12,0,17,0,0,0,0,0,0,0,0,0,0,0,0,0],"split_type":[0,0,0,0,0,0,0,0,0,0,0,0,0,0,0,0,0,0,0,0,0,0,0,0,0,0,0,0,0,0,0,0,0,0,0,0,0,0,0,0,0],"sum_hessian":[1.4381999E2,5.6159996E1,8.7659996E1,5.5079998E1,1.0799999E0,5.6879997E1,3.0779999E1,1.4399999E0,5.364E1,3.51E1,2.1779999E1,1.7099998E1,1.3679999E1,1.3679999E1,2.1419998E1,2.016E1,1.6199999E0,1.6019999E1,1.0799999E0,4.5E0,9.179999E0,1.8E0,1.1879999E1,1.5659999E1,5.7599998E0,1.89E1,1.26E0,3.2399998E0,1.26E0,8.099999E0,1.0799999E0,1.0799999E1,1.0799999E0,7.3799996E0,8.28E0,1.26E0,4.5E0,1.0259999E1,8.639999E0,2.1599998E0,1.0799999E0],"tree_param":{"num_deleted":"0","num_feature":"26","num_nodes":"41","size_leaf_vector":"0"}},{"base_weights":[-4.7645375E-2,-4.0247986E-1,7.692308E-1,-5.16396E-1,-1.927195E-1,1.7588179E0,-1.1973578E-1,-3.355706E-2,-5.309735E-1,6.066946E-1,-3.007743E-1,2.4732006E0,5.1569504E-1,-4.3478262E-1,2.1880063E-1,-5.46385E-1,-1.3513516E-1,-3.7974685E-1,1.5648855E0,-3.538462E-1,6.730769E-1,2.79661E0,-3.0973452E-1,1.6494845E0,-2.9801327E-1,1.9230768E-1,-5.084746E-1,-3.424658E-1,8.6092716E-1,1.9230768E-1,-3.4351146E-1,1.371571E-1,-4.9450552E-1,3.8167927E-2,3.2318273E0,2.1311476E0,4.9180326E-1,-4.435484E-1,1.9230768E-1,-4.6623796E-1,1.9230768E-1,1.2343097E0,-3.0973452E-1,-4.6357617E-1,1.3087249E0,-5.327869E-1,1.9230768E-1,6.730769E-1,3.4615386E0,1.835443E0,3.8167927E-2],"categories":[],"categories_nodes":[],"categories_segments":[],"categories_sizes":[],"default_left":[true,true,true,true,true,true,true,false,true,true,true,true,true,true,true,false,true,false,false,true,false,true,false,true,true,false,false,true,true,false,false,true,true,false,true,false,false,false,false,false,false,true,false,false,false,false,false,false,false,false,false],"id":4,"left_children":[1,3,5,7,9,11,13,-1,15,17,19,21,23,25,27,-1,29,-1,-1,31,-1,33,-1,35,37,-1,-1,39,41,-1,-1,43,45,-1,47,-1,-1,-1,-1,-1,-1,49,-1,-1,-1,-1,-1,-1,-1,-1,-1],"loss_changes":[4.228652E1,2.328701E0,3.9093773E1,4.4151878E-1,3.409654E0,1.7356194E1,2.6783106E0,0E0,3.1220055E-1,5.1123123E0,1.9737179E0,1.2620567E1,8.720927E0,6.9298816E-1,4.7422237E0,0E0,3.185158E-1,0E0,0E0,2.3124113E0,0E0,1.4042793E1,0E0,1.1154299E0,5.163057E-1,0E0,0E0,5.728487E-1,3.0224195E0,0E0,0E0,6.2511673E0,7.723832E-1,0E0,3.653656E0,0E0,0E0,0E0,0E0,0E0,0E0,3.366959E0,0E0,0E0,0E0,0E0,0E0,0E0,0E0,0E0,0E0],"parents":[2147483647,0,0,1,1,2,2,3,3,4,4,5,5,6,6,8,8,9,9,10,10,11,11,12,12,13,13,14,14,16,16,19,19,21,21,23,23,24,24,27,27,28,28,31,31,32,32,34,34,41,41],"right_children":[2,4,6,8,10,12,14,-1,16,18,20,22,24,26,28,-1,30,-1,-1,32,-1,34,-1,36,38,-1,-1,40,42,-1,-1,44,46,-1,48,-1,-1,-1,-1,-1,-1,50,-1,-1,-1,-1,-1,-1,-1,-1,-1],"split_conditions":[4.2202872E-1,1.3039958E-1,1.2729761E-1,-7.3643446E0,-4.5486445E0,9.8174736E1,-5.414251E0,-1.0067118E-2,4.037097E-1,-5.767475E0,6.804083E0,2.01826E0,2.1550411E1,-1.2932173E1,3.76433E0,-1.639155E-1,4.120928E-1,-1.13924064E-1,4.6946567E-1,-3.056262E0,2.0192309E-1,-6.476202E0,-9.292036E-2,4.0855461E3,1.8823957E-1,5.7692308E-2,-1.5254238E-1,4.953685E-1,2.28802E-1,5.7692308E-2,-1.0305344E-1,2.5097885E0,3.613623E3,1.1450378E-2,1.02310605E-1,6.3934433E-1,1.4754099E-1,-1.3306452E-1,5.7692308E-2,-1.3987139E-1,5.7692308E-2,2.3724346E1,-9.292036E-2,-1.3907285E-1,3.926175E-1,-1.5983608E-1,5.7692308E-2,2.0192309E-1,1.0384616E0,5.5063295E-1,1.1450378E-2],"split_indices":[0,1,5,11,23,7,22,0,0,20,23,22,11,20,17,0,0,0,0,25,0,22,0,4,1,0,0,0,1,0,0,12,2,0,1,0,0,0,0,0,0,11,0,0,0,0,0,0,0,0,0],"split_type":[0,0,0,0,0,0,0,0,0,0,0,0,0,0,0,0,0,0,0,0,0,0,0,0,0,0,0,0,0,0,0,0,0,0,0,0,0,0,0,0,0,0,0,0,0,0,0,0,0,0,0],"sum_hessian":[1.4381999E2,1.00619995E2,4.3199997E1,6.4259995E1,3.6359997E1,1.998E1,2.322E1,1.9799999E0,6.228E1,3.7799997E0,3.2579998E1,1.2059999E1,7.9199996E0,1.1879999E1,1.1339999E1,5.9579998E1,2.6999998E0,2.1599998E0,1.6199999E0,3.1499998E1,1.0799999E0,1.0799999E1,1.26E0,2.8799999E0,5.04E0,1.0799999E0,1.0799999E1,6.2999997E0,5.04E0,1.0799999E0,1.6199999E0,7.0199995E0,2.448E1,1.6199999E0,9.179999E0,1.4399999E0,1.4399999E0,3.9599998E0,1.0799999E0,5.22E0,1.0799999E0,3.7799997E0,1.26E0,5.04E0,1.9799999E0,2.34E1,1.0799999E0,1.0799999E0,8.099999E0,2.1599998E0,1.6199999E0],"tree_param":{"num_deleted":"0","num_feature":"26","num_nodes":"51","size_leaf_vector":"0"}},{"base_weights":[2.1405863E-2,9.049774E-1,-3.6311752E-1,-2.5423732E-1,1.2874252E0,1.692607E0,-4.677883E-1,4.054054E-1,-4.9450552E-1,7.451546E-3,2.0448046E0,-2.8846154E-1,2.2906404E0,-5.2219325E-1,-2.559415E-1,9.0163934E-1,-3.0973452E-1,-4.1740677E-1,1.5189873E0,2.7272727E0,1.1100569E0,1.9230768E-1,2.9865773E0,-6.3291155E-2,-5.346588E-1,4.5454544E-1,-4.6605295E-1,1.9230768E-1,-5.0098234E-1,-2.8846154E-1,2.5961537E0,3.1335952E0,-3.0973452E-1,1.4530892E0,-3.5714287E-1,1.9230768E-1,-2.8846154E-1,-2.0361993E-1,1.6346154E0,1.9230768E-1,-5.214724E-1,1.9230768E-1,3.4615386E0,2.1774194E0,3.9748952E-1,-3.8922158E-1,1.9230768E-1],"categories":[],"categories_nodes":[],"categories_segments":[],"categories_sizes":[],"default_left":[true,true,true,true,true,true,true,true,false,true,true,false,true,true,true,false,false,true,true,true,true,false,false,true,false,true,true,false,false,false,false,true,false,true,false,false,false,true,false,false,false,false,false,false,false,false,false],"id":5,"left_children":[1,3,5,7,9,11,13,15,-1,17,19,-1,21,23,25,-1,-1,27,29,31,33,-1,-1,35,-1,37,39,-1,-1,-1,-1,41,-1,43,-1,-1,-1,45,-1,-1,-1,-1,-1,-1,-1,-1,-1],"loss_changes":[4.9531773E1,1.9922897E1,2.2657791E1,2.0706708E0,3.2363583E1,6.750352E0,9.898567E-1,1.5923126E0,0E0,9.252206E0,1.0356453E1,0E0,5.3545036E0,4.0435028E-1,3.47812E0,0E0,0E0,6.701213E-1,6.9011674E0,1.5087593E1,5.8237114E0,0E0,0E0,2.3734176E-1,0E0,4.6045866E0,7.3440933E-1,0E0,0E0,0E0,0E0,9.153694E0,0E0,5.8171253E0,0E0,0E0,0E0,3.996532E-1,0E0,0E0,0E0,0E0,0E0,0E0,0E0,0E0,0E0],"parents":[2147483647,0,0,1,1,2,2,3,3,4,4,5,5,6,6,7,7,9,9,10,10,12,12,13,13,14,14,17,17,18,18,19,19,20,20,23,23,25,25,26,26,31,31,33,33,37,37],"right_children":[2,4,6,8,10,12,14,16,-1,18,20,-1,22,24,26,-1,-1,28,30,32,34,-1,-1,36,-1,38,40,-1,-1,-1,-1,42,-1,44,-1,-1,-1,46,-1,-1,-1,-1,-1,-1,-1,-1,-1],"split_conditions":[3.334223E-1,-6.650173E0,5.398939E-2,8.14421E-2,4.433538E-2,-6.9860125E0,-1.1253777E0,-3.7798214E0,-1.4835167E-1,1.0167754E1,2.872979E-1,-8.6538464E-2,-2.6325745E2,1.3162546E3,3.8204318E-1,2.704918E-1,-9.292036E-2,2.1646327E-1,-8.719252E0,9.077307E-2,4.441229E0,5.7692308E-2,8.959732E-1,3.764447E-1,-1.6039765E-1,8.860456E-1,-5.4862204E0,5.7692308E-2,-1.502947E-1,-8.6538464E-2,7.7884614E-1,-1.7077237E0,-9.292036E-2,1.1943692E2,-1.07142866E-1,5.7692308E-2,-8.6538464E-2,3.6706853E-1,4.9038464E-1,5.7692308E-2,-1.5644172E-1,5.7692308E-2,1.0384616E0,6.5322584E-1,1.1924686E-1,-1.16766475E-1,5.7692308E-2],"split_indices":[0,22,1,1,1,22,22,25,0,11,0,0,6,2,0,0,0,0,10,5,12,0,0,0,0,16,20,0,0,0,0,11,0,7,0,0,0,0,0,0,0,0,0,0,0,0,0],"split_type":[0,0,0,0,0,0,0,0,0,0,0,0,0,0,0,0,0,0,0,0,0,0,0,0,0,0,0,0,0,0,0,0,0,0,0,0,0,0,0,0,0,0,0,0,0,0,0],"sum_hessian":[1.4381999E2,4.3199997E1,1.00619995E2,1.0799999E1,3.2399998E1,4.14E0,9.6479996E1,2.6999998E0,8.099999E0,1.2419999E1,1.998E1,1.0799999E0,3.06E0,7.56E1,2.088E1,1.4399999E0,1.26E0,1.0259999E1,2.1599998E0,1.044E1,9.54E0,1.0799999E0,1.9799999E0,2.1599998E0,7.3439995E1,4.5E0,1.638E1,1.0799999E0,9.179999E0,1.0799999E0,1.0799999E0,9.179999E0,1.26E0,7.74E0,1.8E0,1.0799999E0,1.0799999E0,3.4199998E0,1.0799999E0,1.0799999E0,1.5299999E1,1.0799999E0,8.099999E0,3.9599998E0,3.7799997E0,2.34E0,1.0799999E0],"tree_param":{"num_deleted":"0","num_feature":"26","num_nodes":"47","size_leaf_vector":"0"}},{"base_weights":[1.4500739E-2,-4.2085212E-1,1.6710613E0,-5.1135266E-1,3.0551416E-1,-2.4137934E-1,3.2185273E0,-5.299077E-1,2.2624418E-2,-4.846939E-1,1.2006079E0,-3.651267E-1,6.730769E-1,3.8538682E0,1.0309277E-1,-5.396273E-1,-3.355706E-2,-3.8922158E-1,6.730769E-1,4.7169797E-2,2.3053892E0,6.730769E-1,-5.105349E-1,9.0163934E-1,4.1214056E0,-3.5714287E-1,6.730769E-1,-5.4966044E-1,-2.0361993E-1,6.730769E-1,-3.7974685E-1,1.0176991E0,4.37833E0,1.9230768E-1,-3.8922158E-1],"categories":[],"categories_nodes":[],"categories_segments":[],"categories_sizes":[],"default_left":[true,true,true,true,true,true,true,true,true,false,true,true,false,true,true,true,false,false,false,true,false,false,false,false,true,false,false,false,true,false,false,false,false,false,false],"id":6,"left_children":[1,3,5,7,9,11,13,15,17,-1,19,21,-1,23,25,27,-1,-1,-1,29,-1,-1,-1,-1,31,-1,-1,-1,33,-1,-1,-1,-1,-1,-1],"loss_changes":[1.05145775E2,7.7474785E0,9.056621E1,1.0331059E0,1.0074031E1,1.886601E0,3.2935165E1,4.6258736E-1,1.4460332E0,0E0,8.276129E0,2.3695567E0,0E0,7.3100433E0,1.2582134E0,2.1730995E-1,0E0,0E0,0E0,1.3885698E0,0E0,0E0,0E0,0E0,5.5278625E0,0E0,0E0,0E0,3.996532E-1,0E0,0E0,0E0,0E0,0E0,0E0],"parents":[2147483647,0,0,1,1,2,2,3,3,4,4,5,5,6,6,7,7,8,8,10,10,11,11,13,13,14,14,15,15,19,19,24,24,28,28],"right_children":[2,4,6,8,10,12,14,16,18,-1,20,22,-1,24,26,28,-1,-1,-1,30,-1,-1,-1,-1,32,-1,-1,-1,34,-1,-1,-1,-1,-1,-1],"split_conditions":[5.0348953E1,2.0496754E1,4.2074078E-1,1.2386988E1,1.199099E-1,1.2478661E1,-6.6999493E0,5.458102E0,4.2798352E-1,-1.4540818E-1,2.8998942E0,-7.094468E0,2.0192309E-1,8.83526E0,4.8747268E-1,4.8755854E-1,-1.0067118E-2,-1.16766475E-1,2.0192309E-1,2.3997754E3,6.916168E-1,2.0192309E-1,-1.5316047E-1,2.704918E-1,-1.1256414E2,-1.07142866E-1,2.0192309E-1,-1.6489814E-1,4.96607E-1,2.0192309E-1,-1.13924064E-1,3.0530974E-1,1.3134991E0,5.7692308E-2,-1.16766475E-1],"split_indices":[9,13,0,17,5,17,18,25,0,0,25,25,0,17,0,0,0,0,0,2,0,0,0,0,6,0,0,0,0,0,0,0,0,0,0],"split_type":[0,0,0,0,0,0,0,0,0,0,0,0,0,0,0,0,0,0,0,0,0,0,0,0,0,0,0,0,0,0,0,0,0,0,0],"sum_hessian":[1.4381999E2,1.14479996E2,2.9339998E1,1.0206E2,1.2419999E1,1.3499999E1,1.5839999E1,9.864E1,3.4199998E0,6.8399997E0,5.58E0,1.2419999E1,1.0799999E0,1.2959999E1,2.8799999E0,9.6659996E1,1.9799999E0,2.34E0,1.0799999E0,3.2399998E0,2.34E0,1.0799999E0,1.1339999E1,1.4399999E0,1.15199995E1,1.8E0,1.0799999E0,9.324E1,3.4199998E0,1.0799999E0,2.1599998E0,1.26E0,1.0259999E1,1.0799999E0,2.34E0],"tree_param":{"num_deleted":"0","num_feature":"26","num_nodes":"35","size_leaf_vector":"0"}},{"base_weights":[-2.0024879E-2,-3.8654542E-1,2.5382934E0,-5.032039E-1,1.8287241E-1,3.6516854E-1,3.6019738E0,-5.3991556E-1,3.9164472E-2,1.3022509E0,-2.3255816E-1,-2.8169015E-1,1.7213115E0,7.1428573E-1,4.034749E0,-3.254438E-1,-5.4962647E-1,-4.5454547E-1,8.860759E-1,1.9565217E0,-3.4351146E-1,4.5454544E-1,-3.8147143E-1,-4.3478262E-1,1.9230768E-1,-4.577465E-1,1.9230768E-1,1.6346154E0,-2.8846154E-1,5.7522124E-1,2.3053892E0,1.1538461E0,-3.2786888E-1,-5.09182E-1,1.3513511E-1,6.730769E-1,2.7876105E0,-3.4351146E-1,6.730769E-1],"categories":[],"categories_nodes":[],"categories_segments":[],"categories_sizes":[],"default_left":[true,true,true,true,true,true,true,true,true,true,true,true,false,false,false,true,false,false,true,true,false,true,true,false,false,false,false,false,false,false,true,false,false,false,true,false,false,false,false],"id":7,"left_children":[1,3,5,7,9,11,13,15,17,19,21,23,-1,-1,-1,25,-1,-1,27,29,-1,31,33,-1,-1,-1,-1,-1,-1,-1,35,-1,-1,-1,37,-1,-1,-1,-1],"loss_changes":[1.3677542E2,8.564178E0,4.093908E1,2.1341248E0,1.0728687E1,6.730774E0,1.2314636E1,2.8274536E-2,3.605627E0,7.369625E0,1.93328E0,4.9578404E-1,0E0,0E0,0E0,5.5108756E-1,0E0,0E0,3.2497566E0,8.9058876E-1,0E0,2.3042529E0,1.0373378E0,0E0,0E0,0E0,0E0,0E0,0E0,0E0,7.52758E-1,0E0,0E0,0E0,1.1839004E0,0E0,0E0,0E0,0E0],"parents":[2147483647,0,0,1,1,2,2,3,3,4,4,5,5,6,6,7,7,8,8,9,9,10,10,11,11,15,15,18,18,19,19,21,21,22,22,30,30,34,34],"right_children":[2,4,6,8,10,12,14,16,18,20,22,24,-1,-1,-1,26,-1,-1,28,30,-1,32,34,-1,-1,-1,-1,-1,-1,-1,36,-1,-1,-1,38,-1,-1,-1,-1],"split_conditions":[2.9416118E3,2.5588315E3,1.7621008E-1,2.2277212E0,-2.081874E0,3.250327E0,-1.7553205E0,-6.2280884E0,-1.2660268E2,2.3002724E1,-3.480668E0,1.8303347E-1,5.163935E-1,2.1428573E-1,1.2104248E0,3.4697807E-1,-1.6488795E-1,-1.3636364E-1,4.2363974E-1,-3.5969148E0,-1.0305344E-1,4.0334502E-1,1.4828173E1,-1.304348E-1,5.7692308E-2,-1.3732396E-1,5.7692308E-2,4.9038464E-1,-8.6538464E-2,1.7256638E-1,-3.206644E0,3.4615386E-1,-9.8360665E-2,-1.527546E-1,1.0296411E1,2.0192309E-1,8.362832E-1,-1.0305344E-1,2.0192309E-1],"split_indices":[3,3,1,14,17,14,24,21,6,9,16,5,0,0,0,0,0,0,0,18,0,0,11,0,0,0,0,0,0,0,14,0,0,0,13,0,0,0,0],"split_type":[0,0,0,0,0,0,0,0,0,0,0,0,0,0,0,0,0,0,0,0,0,0,0,0,0,0,0,0,0,0,0,0,0,0,0,0,0,0,0],"sum_hessian":[1.4381999E2,1.2653999E2,1.7279999E1,1.05119995E2,2.1419998E1,6.12E0,1.116E1,9.846E1,6.66E0,5.22E0,1.6199999E1,4.68E0,1.4399999E0,1.8E0,9.36E0,5.7599998E0,9.27E1,4.5E0,2.1599998E0,3.6E0,1.6199999E0,2.52E0,1.3679999E1,3.6E0,1.0799999E0,4.68E0,1.0799999E0,1.0799999E0,1.0799999E0,1.26E0,2.34E0,1.0799999E0,1.4399999E0,1.098E1,2.6999998E0,1.0799999E0,1.26E0,1.6199999E0,1.0799999E0],"tree_param":{"num_deleted":"0","num_feature":"26","num_nodes":"39","size_leaf_vector":"0"}},{"base_weights":[-6.2146317E-3,-1.4377E-1,8.2929194E-1,1.8307854E-1,-4.0463257E-1,1.20226294E-1,2.0588236E0,-2.7950314E-1,1.4285715E0,4.5454544E-1,-4.434886E-1,-4.6623796E-1,5.1569504E-1,2.5E0,-2.8846154E-1,-4.261364E-1,4.3080938E-1,-2.529183E-1,2.0692718E0,-3.0973452E-1,1.0176991E0,6.730769E-1,-4.7181192E-1,1.3709677E0,-4.435484E-1,3.0544748E0,1.3274336E-1,3.5714284E-1,-4.7904193E-1,-2.419355E-1,1.2162162E0,1.9230768E-1,-4.1871923E-1,3.2019705E-1,2.682927E0,-4.8574933E-1,1.9230768E-1,2.3282442E0,2.0958082E-1,-5.3558594E-1,-1.6717327E-1,-4.1237116E-1,1.9230768E-1,-2.8846154E-1,1.9465649E0,1.1538461E0,-3.6912754E-1,3.1741574E0,-2.8846154E-1,-5.0015587E-1,1.9230768E-1,-3.0973452E-1,6.730769E-1],"categories":[],"categories_nodes":[],"categories_segments":[],"categories_sizes":[],"default_left":[true,true,true,true,true,true,true,true,true,true,true,false,true,true,false,true,true,true,true,false,false,false,true,true,false,false,false,false,true,true,true,false,false,true,true,true,false,false,true,false,false,false,false,false,false,false,false,false,false,false,false,false,false],"id":8,"left_children":[1,3,5,7,9,11,13,15,17,19,21,-1,23,25,-1,27,29,31,33,-1,-1,-1,35,37,-1,-1,-1,-1,39,41,43,-1,-1,45,47,49,-1,-1,51,-1,-1,-1,-1,-1,-1,-1,-1,-1,-1,-1,-1,-1,-1],"loss_changes":[1.676316E1,1.0748951E1,1.7729374E1,3.281305E1,2.536481E0,3.5199027E0,8.4671955E0,4.54353E0,1.7114254E1,1.8302493E0,2.44971E0,0E0,7.9261894E0,7.995075E0,0E0,1.6297684E0,4.3416247E0,4.5995194E-1,1.1226612E1,0E0,0E0,0E0,7.074652E-1,5.026416E0,0E0,0E0,0E0,0E0,4.994502E-1,4.463943E-1,4.6275845E0,0E0,0E0,2.7590146E0,1.2884647E1,7.336712E-1,0E0,0E0,1.0124153E0,0E0,0E0,0E0,0E0,0E0,0E0,0E0,0E0,0E0,0E0,0E0,0E0,0E0,0E0],"parents":[2147483647,0,0,1,1,2,2,3,3,4,4,5,5,6,6,7,7,8,8,9,9,10,10,12,12,13,13,15,15,16,16,17,17,18,18,22,22,23,23,28,28,29,29,30,30,33,33,34,34,35,35,38,38],"right_children":[2,4,6,8,10,12,14,16,18,20,22,-1,24,26,-1,28,30,32,34,-1,-1,-1,36,38,-1,-1,-1,-1,40,42,44,-1,-1,46,48,50,-1,-1,52,-1,-1,-1,-1,-1,-1,-1,-1,-1,-1,-1,-1,-1,-1],"split_conditions":[1.8980067E0,-1.3265442E2,8.497314E0,3.6245853E-1,8.10477E0,3.6282766E-1,7.001358E0,-1.6949184E2,-5.863927E0,-2.147913E0,-6.422138E0,-1.3987139E-1,-8.854965E1,2.02052E-1,-8.6538464E-2,9.35103E1,-1.5034217E0,3.7438956E-1,-1.062604E0,-9.292036E-2,3.0530974E-1,2.0192309E-1,1.25102625E1,1.1440275E0,-1.3306452E-1,9.163425E-1,3.982301E-2,1.0714286E-1,3.2472003E-1,3.4020838E-1,-1.0540979E1,5.7692308E-2,-1.2561578E-1,-5.5578313E0,7.579483E-1,3.6340904E0,5.7692308E-2,6.984733E-1,2.994547E3,-1.606758E-1,-5.015198E-2,-1.23711355E-1,5.7692308E-2,-8.6538464E-2,5.839695E-1,3.4615386E-1,-1.1073827E-1,9.5224726E-1,-8.6538464E-2,-1.5004677E-1,5.7692308E-2,-9.292036E-2,2.0192309E-1],"split_indices":[18,6,13,0,9,0,21,6,20,16,21,0,6,1,0,7,25,0,23,0,0,0,19,8,0,0,0,0,0,0,16,0,0,8,22,20,0,0,2,0,0,0,0,0,0,0,0,0,0,0,0,0,0],"split_type":[0,0,0,0,0,0,0,0,0,0,0,0,0,0,0,0,0,0,0,0,0,0,0,0,0,0,0,0,0,0,0,0,0,0,0,0,0,0,0,0,0,0,0,0,0,0,0,0,0,0,0,0,0],"sum_hessian":[1.4381999E2,1.242E2,1.9619999E1,5.526E1,6.8939995E1,1.3139999E1,6.4799995E0,4.0859997E1,1.44E1,2.52E0,6.642E1,5.22E0,7.9199996E0,5.3999996E0,1.0799999E0,3.4199997E1,6.66E0,4.14E0,1.0259999E1,1.26E0,1.26E0,1.0799999E0,6.534E1,3.9599998E0,3.9599998E0,4.14E0,1.26E0,1.8E0,3.2399998E1,3.9599998E0,2.6999998E0,1.0799999E0,3.06E0,3.06E0,7.2E0,6.4259995E1,1.0799999E0,1.6199999E0,2.34E0,2.682E1,5.58E0,2.8799999E0,1.0799999E0,1.0799999E0,1.6199999E0,1.0799999E0,1.9799999E0,6.12E0,1.0799999E0,6.3179996E1,1.0799999E0,1.26E0,1.0799999E0],"tree_param":{"num_deleted":"0","num_feature":"26","num_nodes":"53","size_leaf_vector":"0"}},{"base_weights":[6.904918E-4,1.9924812E0,-7.4733116E-2,3.8167927E-2,2.837838E0,5.6962025E-1,-1.643571E-1,1.7741935E0,8.19672E-2,-5.366848E-1,-4.8076946E-2,2.2972972E0,1.3274336E-1,1.0714285E0,-1.6351122E-1,9.2207E-2,-3.6684784E-1,5.7522124E-1,2.9508197E0,5.6962025E-1,-3.9112052E-1,3.0395117E-2,1.7213115E0,6.730769E-1,-4.3018338E-1,-2.8846154E-1,1.1538461E0,1.9230768E-1,-4.8926017E-1,-2.1688162E-1,2.8763768E-1,-5.326177E-1,1.3618675E-1],"categories":[],"categories_nodes":[],"categories_segments":[],"categories_sizes":[],"default_left":[true,true,true,false,false,true,true,true,true,false,true,true,false,false,true,true,true,false,false,true,true,true,false,false,true,false,false,false,false,false,false,false,false],"id":9,"left_children":[1,3,5,-1,-1,7,9,11,13,-1,15,17,-1,-1,19,21,23,-1,-1,25,27,29,-1,-1,31,-1,-1,-1,-1,-1,-1,-1,-1],"loss_changes":[2.190493E1,8.680813E0,8.207428E0,0E0,0E0,1.0063827E1,5.347889E0,3.953948E0,3.434793E0,0E0,4.312486E0,2.4666615E0,0E0,0E0,2.161791E0,6.7186146E0,2.228588E0,0E0,0E0,1.9169911E0,6.3574374E-1,4.247928E0,0E0,0E0,1.7178617E0,0E0,0E0,0E0,0E0,0E0,0E0,0E0,0E0],"parents":[2147483647,0,0,1,1,2,2,5,5,6,6,7,7,8,8,10,10,11,11,14,14,15,15,16,16,19,19,20,20,21,21,24,24],"right_children":[2,4,6,-1,-1,8,10,12,14,-1,16,18,-1,-1,20,22,24,-1,-1,26,28,30,-1,-1,32,-1,-1,-1,-1,-1,-1,-1,-1],"split_conditions":[-2.1192125E1,1.0371082E-1,-1.67702E1,1.1450378E-2,8.5135144E-1,-3.347484E1,-2.2514716E2,4.2569157E-1,-1.6663464E1,-1.6100545E-1,1.8074636E-1,4.1745575E1,3.982301E-2,3.2142857E-1,1.6281836E0,3.2070927E1,-6.364455E0,1.7256638E-1,8.85246E-1,-1.6943825E1,3.2120952E-1,1.2039344E-1,5.163935E-1,2.0192309E-1,-1.6317173E1,-8.6538464E-2,3.4615386E-1,5.7692308E-2,-1.4677806E-1,-6.506449E-2,8.6291306E-2,-1.5978532E-1,4.0856026E-2],"split_indices":[14,5,12,0,0,8,6,0,16,0,1,9,0,0,23,8,24,0,0,8,0,1,0,0,6,0,0,0,0,0,0,0,0],"split_type":[0,0,0,0,0,0,0,0,0,0,0,0,0,0,0,0,0,0,0,0,0,0,0,0,0,0,0,0,0,0,0,0,0],"sum_hessian":[1.4381999E2,4.3199997E0,1.395E2,1.6199999E0,2.6999998E0,1.638E1,1.23119995E2,3.9599998E0,1.2419999E1,2.8439999E1,9.467999E1,2.6999998E0,1.26E0,1.8E0,1.062E1,6.624E1,2.8439999E1,1.26E0,1.4399999E0,2.1599998E0,8.46E0,6.4799995E1,1.4399999E0,1.0799999E0,2.7359999E1,1.0799999E0,1.0799999E0,1.0799999E0,7.3799996E0,3.312E1,3.1679998E1,2.322E1,4.14E0],"tree_param":{"num_deleted":"0","num_feature":"26","num_nodes":"33","size_leaf_vector":"0"}},{"base_weights":[5.015072E-2,4.5538875E-1,-2.79375E-1,7.6121145E-1,-2.7057198E-1,6.6792566E-1,-4.5058778E-1,-4.7765028E-1,9.9334943E-1,-5.1120263E-1,2.4097757E-1,1.0528789E0,-4.1280332E-1,3.265893E-1,-4.9261487E-1,-4.2076442E-1,1.137031E0,9.310877E-1,-4.2144337E-1,1.3507091E0,-3.3286673E-1,1.2135444E0,-3.672668E-1,5.957211E-1,-5.226288E-1,1.7200414E0,5.825175E-1,-3.1239837E-1,1.6406578E0,1.4862125E-1,1.8882806E0,6.908793E-2,-5.3823125E-1,7.940488E-1,1.9915831E0,1.9248322E0,2.8093904E-1,5.9690803E-1,-3.2227802E-1],"categories":[],"categories_nodes":[],"categories_segments":[],"categories_sizes":[],"default_left":[true,true,true,true,true,true,true,false,true,false,true,true,false,true,true,false,true,true,false,true,false,false,false,false,true,true,true,false,false,true,false,false,false,false,false,false,false,false,false],"id":10,"left_children":[1,3,5,7,9,11,13,-1,15,-1,17,19,-1,21,23,-1,25,27,-1,29,-1,-1,-1,-1,31,33,35,-1,-1,37,-1,-1,-1,-1,-1,-1,-1,-1,-1],"loss_changes":[1.8948698E1,1.4324283E1,1.3009321E1,1.3417377E1,2.5341744E0,5.5920515E0,2.3478985E0,0E0,8.245598E0,0E0,3.5675135E0,4.3384132E0,0E0,2.9297948E0,2.399356E0,0E0,1.0304001E1,3.7889137E0,0E0,4.8588533E0,0E0,0E0,0E0,0E0,6.164036E-1,2.576439E0,7.3272247E0,0E0,0E0,9.4030714E-1,0E0,0E0,0E0,0E0,0E0,0E0,0E0,0E0,0E0],"parents":[2147483647,0,0,1,1,2,2,3,3,4,4,5,5,6,6,8,8,10,10,11,11,13,13,14,14,16,16,17,17,19,19,24,24,25,25,26,26,29,29],"right_children":[2,4,6,8,10,12,14,-1,16,-1,18,20,-1,22,24,-1,26,28,-1,30,-1,-1,-1,-1,32,34,36,-1,-1,38,-1,-1,-1,-1,-1,-1,-1,-1,-1],"split_conditions":[-9.633713E0,4.14453E-1,5.2886114E-2,6.864447E-2,3.011311E1,-1.5283024E0,-1.0160078E1,-1.432951E-1,8.8633375E0,-1.533608E-1,1.7795074E1,1.3759553E3,-1.23841E-1,1.449574E0,-8.898216E0,-1.2622933E-1,5.03438E-1,1.1991895E-1,-1.2643301E-1,-3.2509663E0,-9.986002E-2,3.6406332E-1,-1.1018004E-1,1.7871635E-1,-1.6611576E1,-9.792124E0,-1.6271374E1,-9.371951E-2,4.9219736E-1,1.556513E2,5.664842E-1,2.0726379E-2,-1.6146939E-1,2.3821464E-1,5.9747493E-1,5.774497E-1,8.428171E-2,1.7907241E-1,-9.668341E-2],"split_indices":[14,0,5,1,11,22,18,0,11,0,15,2,0,19,19,0,23,1,0,21,0,0,0,0,10,18,18,0,0,7,0,0,0,0,0,0,0,0,0],"split_type":[0,0,0,0,0,0,0,0,0,0,0,0,0,0,0,0,0,0,0,0,0,0,0,0,0,0,0,0,0,0,0,0,0,0,0,0,0,0,0],"sum_hessian":[1.3994644E2,6.2591667E1,7.735478E1,4.4005203E1,1.8586462E1,1.1396748E1,6.595803E1,6.7775445E0,3.722766E1,1.264091E1,5.9455514E0,8.422458E0,2.9742904E0,3.036436E0,6.2921597E1,3.2557828E0,3.3971878E1,2.7132769E0,3.2322748E0,6.9533076E0,1.4691502E0,1.0040171E0,2.032419E0,1.1828307E0,6.1738766E1,1.5535791E1,1.8436085E1,1.1891271E0,1.5241497E0,2.5430799E0,4.4102273E0,1.498044E0,6.0240723E1,4.412571E0,1.112322E1,2.3947253E0,1.604136E1,1.1657332E0,1.3773468E0],"tree_param":{"num_deleted":"0","num_feature":"26","num_nodes":"39","size_leaf_vector":"0"}},{"base_weights":[2.2198563E-2,1.0795516E0,-4.4518828E-1,1.3658118E0,-3.6306953E-1,7.84774E-1,-4.7244033E-1,1.4392549E0,3.2887563E-1,-4.736109E-1,2.1273449E-1,2.3491602E-1,-4.9077943E-1,1.10109925E-1,1.4803083E0,1.0833315E0,-3.7047857E-1,-3.0449367E-1,7.1376777E-1,-1.5829444E-1,-5.178855E-1,4.8436552E-1,1.5313454E0,5.584166E-1,-4.6733108E-1,-5.2779704E-1,-1.5410236E-1,6.323312E-1,1.10617936E-1,5.4965264E-1,1.5768393E0,-3.019102E-1,1.172351E0,-2.7928612E-1,-5.3876245E-1,2.0355621E-1,-3.5442567E-1],"categories":[],"categories_nodes":[],"categories_segments":[],"categories_sizes":[],"default_left":[true,true,true,true,true,false,true,true,true,false,false,true,true,false,true,false,false,false,false,true,true,true,true,true,false,true,true,false,false,false,false,false,false,false,false,false,false],"id":11,"left_children":[1,3,5,7,9,-1,11,13,15,-1,-1,17,19,-1,21,-1,-1,-1,-1,23,25,27,29,31,-1,33,35,-1,-1,-1,-1,-1,-1,-1,-1,-1,-1],"loss_changes":[7.289349E1,1.9165165E1,3.8004131E0,2.4154434E0,6.2747824E-1,0E0,1.4219341E0,1.7537613E0,2.4090593E0,0E0,0E0,1.0495038E0,8.057785E-1,0E0,9.862137E-1,0E0,0E0,0E0,0E0,2.2245815E0,2.4547577E-1,1.0258162E-1,5.568466E-1,2.005359E0,0E0,8.885002E-2,3.4558064E-1,0E0,0E0,0E0,0E0,0E0,0E0,0E0,0E0,0E0,0E0],"parents":[2147483647,0,0,1,1,2,2,3,3,4,4,6,6,7,7,8,8,11,11,12,12,14,14,19,19,20,20,21,21,22,22,23,23,25,25,26,26],"right_children":[2,4,6,8,10,-1,12,14,16,-1,-1,18,20,-1,22,-1,-1,-1,-1,24,26,28,30,32,-1,34,36,-1,-1,-1,-1,-1,-1,-1,-1,-1,-1],"split_conditions":[6.925604E-2,1.9463505E3,2.3008157E-1,3.235284E-1,1.885094E0,2.3543221E-1,-4.9300504E0,-8.70825E0,1.8391237E-2,-1.4208327E-1,6.382035E-2,-1.1580618E2,-1.60709E0,3.303298E-2,2.0452818E-1,3.2499945E-1,-1.11143574E-1,-9.1348104E-2,2.1413034E-1,-6.3264E0,1.4943906E2,5.4928996E-2,4.2869546E-2,-5.859065E0,-1.4019933E-1,-2.283456E2,2.5753197E1,1.8969937E-1,3.318538E-2,1.648958E-1,4.7305182E-1,-9.057306E-2,3.517053E-1,-8.378584E-2,-1.6162874E-1,6.1066866E-2,-1.06327705E-1],"split_indices":[1,3,0,0,22,0,11,20,1,0,0,6,13,0,0,0,0,0,0,12,7,5,5,13,0,6,9,0,0,0,0,0,0,0,0,0,0],"split_type":[0,0,0,0,0,0,0,0,0,0,0,0,0,0,0,0,0,0,0,0,0,0,0,0,0,0,0,0,0,0,0,0,0,0,0,0,0],"sum_hessian":[1.4552757E2,4.4207874E1,1.013197E2,3.6932564E1,7.2753105E0,1.5937204E0,9.9725975E1,3.4127434E1,2.8051312E0,6.2524586E0,1.0228518E0,2.2217379E0,9.750424E1,1.132835E0,3.29946E1,1.0852883E0,1.7198428E0,1.2160347E0,1.0057032E0,7.8654847E0,8.9638756E1,2.1197662E0,3.0874832E1,2.1265883E0,5.7388964E0,8.682235E1,2.8164022E0,1.0229257E0,1.0968405E0,1.9468353E0,2.8927998E1,1.0972342E0,1.0293541E0,4.7876916E0,8.203466E1,1.0053339E0,1.8110682E0],"tree_param":{"num_deleted":"0","num_feature":"26","num_nodes":"37","size_leaf_vector":"0"}},{"base_weights":[-3.1317372E-2,2.1801992E-1,-3.8425508E-1,6.3186944E-1,-1.5764919E-1,6.1690885E-1,-4.3099508E-1,8.9358276E-1,1.4810427E-2,-4.6483335E-1,7.732613E-2,-5.1294315E-1,2.9525146E-2,-7.3826104E-2,1.1541842E0,-4.7767952E-1,4.9284792E-1,-5.1464665E-1,1.8407159E-1,6.765958E-1,-1.3355969E-1,6.7814596E-2,-5.327353E-1,-4.6603847E-1,9.9410516E-1,-4.6753728E-1,6.128124E-1,3.5099187E-1,1.5886014E0,8.5451293E-1,-3.567948E-1,-3.6652303E-1,1.1721992E0,6.9914544E-1,-2.1539944E-1,-3.2182494E-1,1.8331677E0,-2.9829136E-1,1.131072E0,1.7782267E0,2.8140098E-1,1.1679971E0,4.8519768E-2,1.7506531E0,-3.0238578E-1,-3.864913E-1,3.007887E-1],"categories":[],"categories_nodes":[],"categories_segments":[],"categories_sizes":[],"default_left":[true,true,true,true,true,false,true,true,true,true,true,true,true,true,true,false,true,false,false,true,true,false,false,false,true,false,false,true,true,true,false,false,true,false,true,false,false,false,false,false,false,false,false,false,false,false,false],"id":12,"left_children":[1,3,5,7,9,-1,11,13,15,17,19,21,23,25,27,-1,29,-1,-1,31,33,-1,-1,-1,35,-1,-1,37,39,41,-1,-1,43,-1,45,-1,-1,-1,-1,-1,-1,-1,-1,-1,-1,-1,-1],"loss_changes":[1.2421791E1,1.2972342E1,2.9989252E0,6.3813725E0,3.226448E0,0E0,2.1431942E0,7.0906467E0,3.2511432E0,7.1858263E-1,3.3637621E0,5.86998E-1,4.987177E0,2.1347475E0,7.101448E0,0E0,2.4535232E0,0E0,0E0,4.000452E0,1.513194E0,0E0,0E0,0E0,4.488913E0,0E0,0E0,4.8900366E0,2.9605026E0,1.2569745E0,0E0,0E0,4.7265806E0,0E0,1.7915814E0,0E0,0E0,0E0,0E0,0E0,0E0,0E0,0E0,0E0,0E0,0E0,0E0],"parents":[2147483647,0,0,1,1,2,2,3,3,4,4,6,6,7,7,8,8,9,9,10,10,11,11,12,12,13,13,14,14,16,16,19,19,20,20,24,24,27,27,28,28,29,29,32,32,34,34],"right_children":[2,4,6,8,10,-1,12,14,16,18,20,22,24,26,28,-1,30,-1,-1,32,34,-1,-1,-1,36,-1,-1,38,40,42,-1,-1,44,-1,46,-1,-1,-1,-1,-1,-1,-1,-1,-1,-1,-1,-1],"split_conditions":[3.8735795E-1,-4.9683237E0,-4.504242E0,4.4497856E3,-2.1739648E2,1.8507266E-1,-2.4802135E1,2.8227746E-1,3.5882068E-1,6.8003225E0,1.0560015E-1,-4.726123E0,9.106428E0,1.5256421E3,-1.1067347E1,-1.4330386E-1,2.5972092E1,-1.54394E-1,5.522148E-2,-4.5780163E0,-5.722909E0,2.034438E-2,-1.5982059E-1,-1.3981155E-1,2.4202454E1,-1.4026119E-1,1.8384373E-1,4.6855263E1,-2.4867558E0,6.377131E0,-1.07038446E-1,-1.0995691E-1,1.0232725E1,2.0974363E-1,4.817502E0,-9.6547484E-2,5.499503E-1,-8.948741E-2,3.393216E-1,5.3346807E-1,8.442029E-2,3.5039914E-1,1.4555931E-2,5.2519596E-1,-9.0715736E-2,-1.15947396E-1,9.023661E-2],"split_indices":[0,22,23,4,6,0,6,0,0,12,1,19,10,2,12,0,11,0,0,12,23,0,0,0,9,0,0,9,16,10,0,0,8,0,17,0,0,0,0,0,0,0,0,0,0,0,0],"split_type":[0,0,0,0,0,0,0,0,0,0,0,0,0,0,0,0,0,0,0,0,0,0,0,0,0,0,0,0,0,0,0,0,0,0,0,0,0,0,0,0,0,0,0,0,0,0,0],"sum_hessian":[1.3920387E2,8.179854E1,5.740533E1,3.8596912E1,4.3201622E1,2.0163634E0,5.538897E1,2.6787428E1,1.18094845E1,1.8299887E1,2.4901737E1,4.6924984E1,8.463983E0,5.836775E0,2.0950653E1,5.8171816E0,5.992303E0,1.7187393E1,1.1124924E0,5.9071536E0,1.8994583E1,1.4665279E0,4.5458458E1,5.932793E0,2.5311894E0,3.9124885E0,1.9242866E0,7.98857E0,1.2962082E1,4.1991363E0,1.7931666E0,1.9865093E0,3.9206443E0,1.0247788E0,1.7969805E1,1.2255558E0,1.3056337E0,4.696856E0,3.2917144E0,1.1005297E1,1.9567852E0,2.6998951E0,1.4992414E0,2.6815155E0,1.239129E0,1.36851015E1,4.284703E0],"tree_param":{"num_deleted":"0","num_feature":"26","num_nodes":"47","size_leaf_vector":"0"}},{"base_weights":[-1.4266574E-2,-4.917343E-1,2.3166575E-1,-5.1149756E-1,1.6747738E-1,4.272893E-1,-2.2062099E-1,1.1040663E-1,-5.323868E-1,-4.9498618E-1,5.6817317E-1,-4.4885835E-1,4.384496E-2,8.5107994E-1,-4.6652354E-2,2.2408357E-1,-5.1078457E-1,6.6223675E-1,-3.7624583E-1,1.2172512E0,5.8211207E-2,6.319319E-1,-2.520056E-1,1.1873746E0,-1.0673215E-1,-4.7880372E-1,2.1675909E-1,-4.0383676E-1,1.3959932E0,-3.5933432E-1,5.2624214E-1,-3.3343202E-1,1.2040231E0,-4.2769358E-1,4.5640144E-1,1.9051997E-1,-3.256802E-1],"categories":[],"categories_nodes":[],"categories_segments":[],"categories_sizes":[],"default_left":[true,true,true,true,false,true,true,false,false,false,true,true,true,true,true,false,false,true,true,true,true,true,true,false,true,false,false,false,false,false,false,false,false,false,false,false,false],"id":13,"left_children":[1,3,5,7,-1,9,11,-1,-1,-1,13,15,17,19,21,-1,-1,23,25,27,29,31,33,-1,35,-1,-1,-1,-1,-1,-1,-1,-1,-1,-1,-1,-1],"loss_changes":[1.6512259E1,7.0836735E-1,8.309727E0,6.648388E-1,0E0,8.747527E0,1.7517184E0,0E0,0E0,0E0,9.952393E0,7.600224E-1,3.9389262E0,1.1275715E1,2.7939963E0,0E0,0E0,2.5931928E0,6.5694726E-1,8.295872E0,2.807258E0,2.9847932E0,2.0906868E0,0E0,2.830737E-1,0E0,0E0,0E0,0E0,0E0,0E0,0E0,0E0,0E0,0E0,0E0,0E0],"parents":[2147483647,0,0,1,1,2,2,3,3,5,5,6,6,10,10,11,11,12,12,13,13,14,14,17,17,18,18,19,19,20,20,21,21,22,22,24,24],"right_children":[2,4,6,8,-1,10,12,-1,-1,-1,14,16,18,20,22,-1,-1,24,26,28,30,32,34,-1,36,-1,-1,-1,-1,-1,-1,-1,-1,-1,-1,-1,-1],"split_conditions":[4.1640996E3,2.3662441E3,1.7875902E-1,-1.9886349E1,5.0243217E-2,3.4083843E-1,9.688659E0,3.3121992E-2,-1.5971604E-1,-1.4849585E-1,4.559777E1,-3.7058005E0,3.8088965E0,-1.049825E0,-1.23760994E2,6.7225076E-2,-1.5323538E-1,3.7663132E-1,6.2434993E0,7.5876534E-2,-9.815137E1,1.24577265E1,-7.584453E0,3.5621238E-1,4.1652435E-1,-1.4364113E-1,6.502773E-2,-1.2115103E-1,4.18798E-1,-1.078003E-1,1.5787265E-1,-1.0002961E-1,3.6120695E-1,-1.2830807E-1,1.3692044E-1,5.7155993E-2,-9.770406E-2],"split_indices":[4,3,1,16,0,0,15,0,0,0,9,14,21,18,6,0,0,25,25,1,6,15,18,0,0,0,0,0,0,0,0,0,0,0,0,0,0],"split_type":[0,0,0,0,0,0,0,0,0,0,0,0,0,0,0,0,0,0,0,0,0,0,0,0,0,0,0,0,0,0,0,0,0,0,0,0,0],"sum_hessian":[1.3864978E2,4.6796597E1,9.185318E1,4.565202E1,1.1445781E0,6.415853E1,2.7694649E1,1.3443167E0,4.43077E1,8.1688595E0,5.5989674E1,1.4491275E1,1.3203374E1,3.8082203E1,1.7907469E1,1.0004957E0,1.3490779E1,5.1079044E0,8.095469E0,2.5684883E1,1.2397322E1,3.6776106E0,1.4229858E1,2.7118425E0,2.396062E0,7.066011E0,1.0294585E0,2.4257138E0,2.3259169E1,6.674778E0,5.7225432E0,1.5236789E0,2.1539319E0,1.1719605E1,2.5102522E0,1.0713695E0,1.3246925E0],"tree_param":{"num_deleted":"0","num_feature":"26","num_nodes":"37","size_leaf_vector":"0"}},{"base_weights":[-3.6554225E-2,-3.743496E-1,5.525853E-1,-4.8849948E-2,-4.5568934E-1,9.9354976E-1,-7.533247E-2,7.061825E-1,-3.66496E-1,-4.8212218E-1,4.3434116E-1,3.095977E-2,1.181312E0,-3.9670813E-1,2.0217445E-1,-1.5157004E-1,1.5495411E0,3.3916295E-1,-5.0274986E-1,-4.9548262E-1,1.9084208E-1,-4.310813E-1,7.9723465E-1,-3.6276028E-1,1.3220924E0,2.2122654E-1,-4.8521197E-1,-4.3947402E-1,5.716568E-1,2.1432333E-1,-3.5752317E-1,-5.091134E-1,9.599331E-2,1.4720967E0,2.6136458E-1,9.128051E-1,-1.3122004E-1,-9.970132E-2,-5.229608E-1,1.674955E0,5.996629E-1,9.8350865E-1,-3.9492264E-1,-6.580983E-2,1.5036145E0,-3.505408E-1,2.1410188E-1],"categories":[],"categories_nodes":[],"categories_segments":[],"categories_sizes":[],"default_left":[true,true,true,true,true,true,true,true,true,true,false,true,true,true,true,true,false,false,false,true,false,false,false,false,true,false,false,false,true,false,false,true,false,true,true,true,true,false,false,false,false,false,false,false,false,false,false],"id":14,"left_children":[1,3,5,7,9,11,13,15,17,19,-1,21,23,25,27,29,-1,-1,-1,31,-1,-1,-1,-1,33,-1,-1,-1,35,-1,-1,37,-1,39,41,43,45,-1,-1,-1,-1,-1,-1,-1,-1,-1,-1],"loss_changes":[2.7910105E1,2.336031E0,1.4233216E1,4.7984776E0,1.8831463E0,5.405285E0,2.0444434E0,4.5367613E0,1.5148281E0,7.2003365E-1,0E0,2.447216E0,5.9504433E0,6.839458E-1,3.210282E0,3.674395E-1,0E0,0E0,0E0,6.0105705E-1,0E0,0E0,0E0,0E0,3.3194313E0,0E0,0E0,0E0,2.123213E0,0E0,0E0,3.2830238E-1,0E0,2.5670433E0,2.331621E0,3.4238453E0,3.4803933E-1,0E0,0E0,0E0,0E0,0E0,0E0,0E0,0E0,0E0,0E0],"parents":[2147483647,0,0,1,1,2,2,3,3,4,4,5,5,6,6,7,7,8,8,9,9,11,11,12,12,13,13,14,14,15,15,19,19,24,24,28,28,31,31,33,33,34,34,35,35,36,36],"right_children":[2,4,6,8,10,12,14,16,18,20,-1,22,24,26,28,30,-1,-1,-1,32,-1,-1,-1,-1,34,-1,-1,-1,36,-1,-1,38,-1,40,42,44,46,-1,-1,-1,-1,-1,-1,-1,-1,-1,-1],"split_conditions":[4.2202872E-1,7.9439995E1,1.2729761E-1,2.7759927E3,7.845439E0,-6.210639E0,-5.414251E0,3.327637E0,5.1295284E1,4.3422573E1,1.3030235E-1,-4.318514E0,-2.2216061E2,-1.2932173E1,2.3038912E0,2.462527E3,4.6486235E-1,1.0174889E-1,-1.5082496E-1,6.0784616E0,5.7252627E-2,-1.2932439E-1,2.391704E-1,-1.0882809E-1,1.0208573E0,6.636797E-2,-1.455636E-1,-1.3184221E-1,2.9030104E0,6.4297E-2,-1.0725696E-1,-9.220196E0,2.8797993E-2,2.2957851E1,9.6136E-1,-1.3568873E1,7.0934105E-1,-2.9910399E-2,-1.5688825E-1,5.024865E-1,1.7989887E-1,2.9505262E-1,-1.184768E-1,-1.974295E-2,4.5108438E-1,-1.0516224E-1,6.423057E-2],"split_indices":[0,7,5,2,23,22,22,12,7,8,0,20,6,20,17,2,0,0,0,14,0,0,0,0,22,0,0,0,12,0,0,24,0,13,18,10,18,0,0,0,0,0,0,0,0,0,0],"split_type":[0,0,0,0,0,0,0,0,0,0,0,0,0,0,0,0,0,0,0,0,0,0,0,0,0,0,0,0,0,0,0,0,0,0,0,0,0,0,0,0,0,0,0,0,0,0,0],"sum_hessian":[1.3820627E2,8.807259E1,5.0133667E1,1.7928434E1,7.0144165E1,2.9109089E1,2.1024576E1,4.946832E0,1.2981603E1,6.856614E1,1.5780245E0,4.941365E0,2.4167725E1,9.543213E0,1.1481362E1,2.8591561E0,2.087676E0,1.8599131E0,1.112169E1,6.748998E1,1.0761533E0,3.3555188E0,1.5858458E0,1.8876213E0,2.2280104E1,1.0077145E0,8.535499E0,4.1262407E0,7.3551216E0,1.015101E0,1.8440552E0,6.61058E1,1.3841842E0,1.917993E1,3.1001732E0,4.750668E0,2.6044538E0,2.4309907E0,6.367481E1,1.4815229E1,4.3647013E0,1.2386419E0,1.8615314E0,2.1229055E0,2.6277626E0,1.5835787E0,1.0208751E0],"tree_param":{"num_deleted":"0","num_feature":"26","num_nodes":"47","size_leaf_vector":"0"}},{"base_weights":[1.6839974E-2,5.8714354E-1,-3.4075576E-1,-1.169901E-1,8.225635E-1,1.0278609E0,-4.4363564E-1,-2.958078E-1,1.067922E0,-1.5560164E-1,1.0595524E0,-2.8020406E-1,1.3269452E0,-5.0618875E-1,-2.138125E-1,4.210437E-1,-4.2761213E-1,-4.6714038E-1,7.338358E-1,-3.555125E-1,1.151776E0,1.5762831E-1,1.583301E0,-4.492964E-2,-5.207301E-1,4.1879383E-1,-4.409489E-1,2.1041697E-1,-5.0799483E-1,1.3580155E0,6.3146275E-1,-2.8411248E-1,2.2202513E-1,-5.3608817E-1,-3.14156E-1,1.356282E0,-1.9683872E-1,1.7794418E-1,-5.0458944E-1,2.093381E-1,1.4728462E0,-2.1039112E-1,1.0123942E0,-4.47718E-1,2.0681748E-1,2.0207274E-1,-3.8863862E-1],"categories":[],"categories_nodes":[],"categories_segments":[],"categories_sizes":[],"default_left":[true,true,true,true,true,true,true,true,false,true,true,false,true,true,true,false,true,false,false,false,true,false,false,true,true,true,true,false,false,true,true,false,false,false,true,false,true,false,false,false,false,false,false,false,false,false,false],"id":15,"left_children":[1,3,5,7,9,11,13,15,-1,17,19,-1,21,23,25,-1,27,-1,-1,-1,29,-1,-1,31,33,35,37,-1,-1,39,41,-1,-1,-1,43,-1,45,-1,-1,-1,-1,-1,-1,-1,-1,-1,-1],"loss_changes":[2.921757E1,9.246847E0,1.2858522E1,3.4320924E0,9.78389E0,2.8990703E0,1.0795898E0,1.4614137E0,0E0,2.8268247E0,4.785202E0,0E0,1.3787565E0,4.0731812E-1,2.9734373E0,0E0,7.198472E-1,0E0,0E0,0E0,2.5457E0,0E0,0E0,2.5827134E-1,2.878952E-2,3.5223408E0,6.714544E-1,0E0,0E0,2.5728073E0,3.6993828E0,0E0,0E0,0E0,5.599838E-1,0E0,4.0584224E-1,0E0,0E0,0E0,0E0,0E0,0E0,0E0,0E0,0E0,0E0],"parents":[2147483647,0,0,1,1,2,2,3,3,4,4,5,5,6,6,7,7,9,9,10,10,12,12,13,13,14,14,16,16,20,20,23,23,24,24,25,25,26,26,29,29,30,30,34,34,36,36],"right_children":[2,4,6,8,10,12,14,16,-1,18,20,-1,22,24,26,-1,28,-1,-1,-1,30,-1,-1,32,34,36,38,-1,-1,40,42,-1,-1,-1,44,-1,46,-1,-1,-1,-1,-1,-1,-1,-1,-1,-1],"split_conditions":[3.3768183E-1,-5.260317E0,5.398939E-2,7.19753E0,3.9087705E-2,-6.9860125E0,-1.1253777E0,4.396402E-2,3.203766E-1,1.0167754E1,-3.757296E0,-8.406122E-2,-2.0368726E0,1.3162546E3,3.8204318E-1,1.2631312E-1,-2.0675861E1,-1.4014211E-1,2.2015075E-1,-1.0665376E-1,-1.8254212E-1,4.7288496E-2,4.749903E-1,3.7097225E1,-2.3514904E1,1.3551922E-1,-5.4862204E0,6.3125096E-2,-1.5239845E-1,2.0832146E1,-3.3050334E-1,-8.523375E-2,6.660754E-2,-1.6082646E-1,4.81084E-2,4.068846E-1,9.3332183E-1,5.3383257E-2,-1.5137684E-1,6.2801436E-2,4.4185385E-1,-6.311734E-2,3.0371827E-1,-1.343154E-1,6.2045246E-2,6.0621824E-2,-1.1659159E-1],"split_indices":[0,22,1,19,1,22,22,1,0,11,11,0,21,2,0,0,16,0,0,0,23,0,0,9,6,22,20,0,0,9,19,0,0,0,8,0,10,0,0,0,0,0,0,0,0,0,0],"split_type":[0,0,0,0,0,0,0,0,0,0,0,0,0,0,0,0,0,0,0,0,0,0,0,0,0,0,0,0,0,0,0,0,0,0,0,0,0,0,0,0,0,0,0,0,0,0,0],"sum_hessian":[1.412858E2,5.4201622E1,8.708417E1,1.370712E1,4.0494503E1,5.4599037E0,8.162427E1,1.2561753E1,1.1453671E0,7.964534E0,3.252997E1,1.0278149E0,4.432089E0,6.3215744E1,1.8408524E1,1.6101391E0,1.0951614E1,6.2501254E0,1.7144084E0,1.8156694E0,3.07143E1,1.0873293E0,3.3447595E0,2.0569801E0,6.1158764E1,4.6404443E0,1.3768079E1,1.0443678E0,9.907247E0,2.0842741E1,9.871558E0,1.0510243E0,1.0059558E0,5.5441708E1,5.7170544E0,1.3625207E0,3.2779236E0,1.1162884E0,1.2651791E1,2.1508002E0,1.869194E1,3.214732E0,6.656826E0,4.662374E0,1.0546805E0,1.0469286E0,2.230995E0],"tree_param":{"num_deleted":"0","num_feature":"26","num_nodes":"47","size_leaf_vector":"0"}},{"base_weights":[-4.196875E-3,-4.730345E-1,7.606528E-1,-5.167418E-1,1.0676093E0,-1.11513875E-1,1.188306E0,2.0473652E-1,-5.2791053E-1,1.4449756E0,-3.032154E-1,1.3999045E0,-1.5447424E-1,-5.391342E-1,-1.8238094E-2,6.061206E-1,-4.0210998E-1,-1.6728256E-2,1.4875685E0,6.5046453E-1,-4.5083654E-1,2.684632E-1,-5.1395243E-1,7.708256E-1,1.6015272E0,1.2565129E0,-8.074943E-2,4.6463257E-1,1.6494024E0],"categories":[],"categories_nodes":[],"categories_segments":[],"categories_sizes":[],"default_left":[true,true,true,true,false,true,true,false,true,false,true,true,true,false,false,false,true,false,true,false,false,false,false,true,true,false,false,false,false],"id":16,"left_children":[1,3,5,7,-1,9,11,-1,13,-1,15,17,19,-1,-1,-1,21,-1,23,-1,-1,-1,-1,25,27,-1,-1,-1,-1],"loss_changes":[5.17152E1,6.572008E0,2.0575523E1,8.1406593E-1,0E0,6.091563E0,1.0689938E1,0E0,4.853058E-1,0E0,1.8350873E0,3.9918785E0,1.7051803E0,0E0,0E0,0E0,1.3800502E0,0E0,1.2234879E0,0E0,0E0,0E0,0E0,2.6063075E0,5.963745E-1,0E0,0E0,0E0,0E0],"parents":[2147483647,0,0,1,1,2,2,3,3,5,5,6,6,8,8,10,10,11,11,12,12,16,16,18,18,23,23,24,24],"right_children":[2,4,6,8,-1,10,12,-1,14,-1,16,18,20,-1,-1,-1,22,-1,24,-1,-1,-1,-1,26,28,-1,-1,-1,-1],"split_conditions":[8.926945E0,6.902034E1,4.2960417E-1,-1.4486433E1,3.2028282E-1,-2.6506454E1,-4.2733865E0,6.142096E-2,5.458102E0,4.334927E-1,-5.8650556E0,4.184527E1,-6.6563168E0,-1.6174027E-1,-5.4714284E-3,1.8183619E-1,1.3447901E1,-5.018477E-3,1.20384194E-1,1.9513936E-1,-1.3525097E-1,8.053896E-2,-1.5418574E-1,1.5260496E1,-1.9734905E1,3.7695387E-1,-2.422483E-2,1.3938978E-1,4.9482074E-1],"split_indices":[17,9,0,20,0,10,22,0,25,0,25,9,20,0,0,0,13,0,5,0,0,0,0,15,14,0,0,0,0],"split_type":[0,0,0,0,0,0,0,0,0,0,0,0,0,0,0,0,0,0,0,0,0,0,0,0,0,0,0,0,0],"sum_hessian":[1.4221465E2,8.840542E1,5.380923E1,8.661285E1,1.7925713E0,1.794697E1,3.5862263E1,1.0561519E0,8.5556694E1,1.2511148E0,1.6695856E1,3.094356E1,4.918702E0,8.365666E1,1.9000311E0,1.1345657E0,1.556129E1,1.8504133E0,2.9093145E1,1.0021017E0,3.9166002E0,2.0242336E0,1.3537057E1,5.056214E0,2.4036932E1,2.9170103E0,2.1392035E0,1.4038845E0,2.2633047E1],"tree_param":{"num_deleted":"0","num_feature":"26","num_nodes":"29","size_leaf_vector":"0"}},{"base_weights":[-2.5448162E-2,-3.850768E-1,1.0856577E0,-5.138755E-1,1.2353151E-2,2.901071E-1,1.483825E0,-5.3780264E-1,1.3800973E-2,1.3144754E0,-1.710119E-1,9.653981E-1,-4.8705333E-1,1.6478627E0,-8.637218E-2,7.0857066E-1,-3.902308E-1,1.7307365E0,1.9472697E-1,1.4534108E-1,-5.039924E-1,-3.2719454E-1,1.353643E0,1.763179E0,6.075705E-1,1.8293107E-1,-3.022208E-1,1.225995E0,-1.5901005E-1,1.5939857E0,1.4149672E-1,3.6153685E-2,9.3214846E-1,1.9761026E-1,1.6458275E0,-4.7631407E-1,3.174959E-1],"categories":[],"categories_nodes":[],"categories_segments":[],"categories_sizes":[],"default_left":[true,true,true,true,true,true,true,false,true,true,true,true,false,true,true,false,false,false,false,true,false,false,true,false,true,false,false,true,true,false,false,false,false,false,false,false,false],"id":17,"left_children":[1,3,5,7,9,11,13,-1,15,17,19,21,-1,23,25,-1,-1,-1,-1,27,-1,-1,29,-1,31,-1,-1,33,35,-1,-1,-1,-1,-1,-1,-1,-1],"loss_changes":[5.6795288E1,5.5002956E0,1.0580639E1,1.031147E0,6.730118E0,7.2075863E0,6.0468063E0,0E0,1.5374819E0,1.2842364E0,2.6822534E0,4.058387E0,0E0,1.4245834E0,2.3655976E-1,0E0,0E0,0E0,0E0,4.627532E0,0E0,0E0,1.4452314E0,0E0,6.343359E-1,0E0,0E0,1.002984E0,1.8749849E0,0E0,0E0,0E0,0E0,0E0,0E0,0E0,0E0],"parents":[2147483647,0,0,1,1,2,2,3,3,4,4,5,5,6,6,8,8,9,9,10,10,11,11,13,13,14,14,19,19,22,22,24,24,27,27,28,28],"right_children":[2,4,6,8,10,12,14,-1,16,18,20,22,-1,24,26,-1,-1,-1,-1,28,-1,-1,30,-1,32,-1,-1,34,36,-1,-1,-1,-1,-1,-1,-1,-1],"split_conditions":[2.8582646E3,2.4207925E3,2.0636542E0,1.5005942E1,-5.467712E0,-9.5105135E-1,1.1272594E1,-1.613408E-1,2.3628838E0,8.652158E-2,1.7102039E0,1.6658497E-1,-1.46116E-1,3.0535479E0,5.7148547E0,2.125712E-1,-1.17069244E-1,5.1922095E-1,5.8418095E-2,-5.6071157E0,-1.5119772E-1,-9.815837E-2,4.2655653E-1,5.2895373E-1,3.1699553E3,5.4879323E-2,-9.066624E-2,1.1346838E0,2.6853037E0,4.7819573E-1,4.2449016E-2,1.0846106E-2,2.7964455E-1,5.928308E-2,4.9374828E-1,-1.4289422E-1,9.524878E-2],"split_indices":[3,3,14,10,19,16,11,0,11,5,17,1,0,19,13,0,0,0,0,16,0,0,0,0,2,0,0,13,15,0,0,0,0,0,0,0,0],"split_type":[0,0,0,0,0,0,0,0,0,0,0,0,0,0,0,0,0,0,0,0,0,0,0,0,0,0,0,0,0,0,0,0,0,0,0,0,0],"sum_hessian":[1.4008926E2,1.0632785E2,3.3761417E1,8.008197E1,2.6245878E1,1.1837776E1,2.1923641E1,7.658986E1,3.4921103E0,2.4782887E0,2.376759E1,6.2044168E0,5.63336E0,1.9805145E1,2.1184955E0,1.0069013E0,2.4852087E0,1.4088922E0,1.0693966E0,1.24770775E1,1.1290513E1,1.4694362E0,4.7349806E0,1.7203276E1,2.601871E0,1.0103884E0,1.1081069E0,2.0763597E0,1.0400717E1,3.688599E0,1.0463815E0,1.3451433E0,1.2567276E0,1.0282756E0,1.0480843E0,6.243554E0,4.157163E0],"tree_param":{"num_deleted":"0","num_feature":"26","num_nodes":"37","size_leaf_vector":"0"}},{"base_weights":[-7.459061E-4,-2.3116653E-1,3.3615336E-1,6.937242E-3,-4.4658104E-1,5.7296836E-1,-4.3951124E-1,-3.2624283E-1,7.849657E-1,-4.885488E-1,3.335209E-1,-4.923094E-1,8.379722E-1,-5.073876E-1,2.179714E-1,-4.4650146E-1,3.421869E-1,-4.2562744E-1,1.1667972E0,2.0823345E-1,-5.106686E-1,1.2980936E0,5.041682E-1,-5.205923E-1,-9.776002E-3,1.216979E0,-3.9650187E-1,-1.0122675E-1,1.5617703E0,1.4798937E0,2.1782984E-1,-4.1907462E-1,6.706183E-1,6.800862E-1,-3.98648E-1,-3.2295045E-1,1.9347972E-1,1.6235642E-1,1.7657237E0,1.7179941E0,6.4080316E-3,6.971114E-1,-3.0923718E-1,1.3108872E-1,1.0684106E0],"categories":[],"categories_nodes":[],"categories_segments":[],"categories_sizes":[],"default_left":[true,true,true,true,true,true,true,true,true,true,false,false,true,false,false,true,true,false,true,false,false,true,true,false,true,false,false,true,true,true,true,false,true,false,false,false,false,false,false,false,false,false,false,false,false],"id":18,"left_children":[1,3,5,7,9,11,13,15,17,19,-1,-1,21,-1,-1,23,25,-1,27,-1,-1,29,31,-1,33,-1,-1,35,37,39,41,-1,43,-1,-1,-1,-1,-1,-1,-1,-1,-1,-1,-1,-1],"loss_changes":[1.0995989E1,4.3174567E0,1.081991E1,1.0868245E1,1.6092606E0,1.297782E1,7.363868E-1,2.5136697E0,6.3062425E0,7.5871754E-1,0E0,0E0,4.876831E0,0E0,0E0,8.143749E-1,3.7422423E0,0E0,5.0772934E0,0E0,0E0,2.5266266E0,3.7397141E0,0E0,1.5299476E0,0E0,0E0,2.7628273E-1,1.868227E0,4.2847767E0,1.0396687E0,0E0,4.0350256E0,0E0,0E0,0E0,0E0,0E0,0E0,0E0,0E0,0E0,0E0,0E0,0E0],"parents":[2147483647,0,0,1,1,2,2,3,3,4,4,5,5,6,6,7,7,8,8,9,9,12,12,15,15,16,16,18,18,21,21,22,22,24,24,27,27,28,28,29,29,30,30,32,32],"right_children":[2,4,6,8,10,12,14,16,18,20,-1,-1,22,-1,-1,24,26,-1,28,-1,-1,30,32,-1,34,-1,-1,36,38,40,42,-1,44,-1,-1,-1,-1,-1,-1,-1,-1,-1,-1,-1,-1],"split_conditions":[-3.0958352E0,-1.4240317E2,-6.61261E1,3.6420572E-1,3.365144E-1,3.1820267E-1,1.8709788E-1,2.0012561E3,9.425495E0,-7.5297246E0,1.0005627E-1,-1.4769283E-1,4.631809E0,-1.5221629E-1,6.539142E-2,6.1511326E0,2.15088E3,-1.2768824E-1,-8.950953E0,6.2470037E-2,-1.5320058E-1,1.203594E0,6.89631E0,-1.5617768E-1,8.180809E0,3.650937E-1,-1.1895057E-1,1.1939824E-2,3.3828755E3,1.8153717E-1,8.666873E-1,-1.257224E-1,-4.7596106E-1,2.0402586E-1,-1.195944E-1,-9.688514E-2,5.8043916E-2,4.870693E-2,5.2971715E-1,5.1539826E-1,1.9224095E-3,2.0913343E-1,-9.277116E-2,3.9326616E-2,3.205232E-1],"split_indices":[16,6,6,0,20,0,5,2,15,25,0,0,10,0,0,17,2,0,18,0,0,25,10,0,15,0,0,25,4,1,21,0,23,0,0,0,0,0,0,0,0,0,0,0,0],"split_type":[0,0,0,0,0,0,0,0,0,0,0,0,0,0,0,0,0,0,0,0,0,0,0,0,0,0,0,0,0,0,0,0,0,0,0,0,0,0,0,0,0,0,0,0,0],"sum_hessian":[1.3964778E2,8.311531E1,5.6532475E1,3.9938236E1,4.317707E1,4.350995E1,1.3022525E1,2.8369894E1,1.1568341E1,4.132748E1,1.8495893E0,8.496696E0,3.5013252E1,1.2010852E1,1.0116735E0,2.4325462E1,4.044432E0,2.7463536E0,8.821987E0,1.0127124E0,4.031477E1,1.3506653E1,2.1506598E1,2.063302E1,3.6924427E0,1.5552006E0,2.4892318E0,2.271919E0,6.5500684E0,1.1244373E1,2.2622797E0,3.0532913E0,1.8453306E1,1.0611264E0,2.6313162E0,1.2418044E0,1.0301147E0,1.061652E0,5.4884167E0,9.537303E0,1.7070706E0,1.0158793E0,1.2464005E0,8.395691E0,1.0057616E1],"tree_param":{"num_deleted":"0","num_feature":"26","num_nodes":"45","size_leaf_vector":"0"}},{"base_weights":[2.1960994E-2,6.419217E-1,-1.3526219E-1,1.0805714E0,-2.1553974E-1,-5.201915E-1,-3.3765085E-2,-3.956072E-2,1.5761515E0,-3.9031935E-1,6.749416E-1,1.2615639E-1,-3.643804E-1,-4.397014E-1,6.218408E-1,1.87356E0,-5.310665E-2,-4.8675808E-1,1.7643107E-1,-3.0070484E-1,3.569892E-1,7.715318E-1,-4.60695E-1,2.0545907E0,4.4076642E-1,-1.1105603E-1,-4.9964917E-1,8.7338704E-1,2.0840738E-2,1.6853029E-1,-4.9435973E-1,5.674977E-1,2.20386E0,-4.72829E-1,2.6903713E-1,1.342426E0,-7.462781E-3,8.0145013E-1,-1.23759545E-1,-1.0912905E-1,-5.2992356E-1],"categories":[],"categories_nodes":[],"categories_segments":[],"categories_sizes":[],"default_left":[true,true,true,true,true,false,true,true,true,true,false,true,true,false,false,true,false,false,false,true,true,false,true,true,false,true,false,true,true,false,true,false,false,false,false,false,false,false,false,false,false],"id":19,"left_children":[1,3,5,7,9,-1,11,13,15,17,-1,19,21,-1,-1,23,-1,-1,-1,25,27,-1,29,31,-1,33,-1,35,37,-1,39,-1,-1,-1,-1,-1,-1,-1,-1,-1,-1],"loss_changes":[1.36275215E1,1.0868622E1,4.34418E0,1.0539261E1,1.8826468E0,0E0,4.7736106E0,2.063665E0,6.4515038E0,5.958427E-1,0E0,6.118681E0,3.5728152E0,0E0,0E0,1.9768791E0,0E0,0E0,0E0,7.7286077E-1,6.9344563E0,0E0,6.708274E-1,8.787956E-1,0E0,1.8496058E0,0E0,6.524599E0,2.953272E0,0E0,3.063388E-1,0E0,0E0,0E0,0E0,0E0,0E0,0E0,0E0,0E0,0E0],"parents":[2147483647,0,0,1,1,2,2,3,3,4,4,6,6,7,7,8,8,9,9,11,11,12,12,15,15,19,19,20,20,22,22,23,23,25,25,27,27,28,28,30,30],"right_children":[2,4,6,8,10,-1,12,14,16,18,-1,20,22,-1,-1,24,-1,-1,-1,26,28,-1,30,32,-1,34,-1,36,38,-1,40,-1,-1,-1,-1,-1,-1,-1,-1,-1,-1],"split_conditions":[-1.5089729E1,4.700695E0,-2.2514716E2,1.0581785E1,7.56791E0,-1.5605745E-1,1.8102325E0,3.510606E-1,1.2397665E1,-3.236833E0,2.0248249E-1,5.507855E0,3.1213695E-1,-1.3191043E-1,1.8655224E-1,-6.8657246E0,-1.5931996E-2,-1.4602743E-1,5.2929323E-2,1.1618179E0,-4.4913357E-1,2.3145956E-1,-2.808714E0,-2.1636318E1,1.3222994E-1,-2.984416E0,-1.4989476E-1,6.817507E0,5.551289E-2,5.055909E-2,-8.558239E0,1.7024931E-1,6.61158E-1,-1.4184871E-1,8.071114E-2,4.027278E-1,-2.2388343E-3,2.4043505E-1,-3.7127864E-2,-3.2738715E-2,-1.5897708E-1],"split_indices":[12,21,6,15,23,0,23,0,17,24,0,11,0,0,0,22,0,0,0,15,21,0,19,12,0,21,0,8,5,0,22,0,0,0,0,0,0,0,0,0,0],"split_type":[0,0,0,0,0,0,0,0,0,0,0,0,0,0,0,0,0,0,0,0,0,0,0,0,0,0,0,0,0,0,0,0,0,0,0,0,0,0,0,0,0],"sum_hessian":[1.3791852E2,2.727706E1,1.10641464E2,1.7873402E1,9.403657E0,2.2225548E1,8.841591E1,5.7644672E0,1.2108934E1,8.3303E0,1.0733572E0,6.0007965E1,2.840795E1,3.8004398E0,1.9640272E0,1.0112947E1,1.9959877E0,7.2395535E0,1.0907465E0,2.0954933E1,3.905303E1,1.6724867E0,2.6735462E1,8.593233E0,1.519714E0,1.1525848E1,9.429085E0,1.4767969E1,2.428506E1,1.154305E0,2.5581158E1,1.2219009E0,7.371332E0,5.780235E0,5.745614E0,9.2946825E0,5.4732866E0,3.0855458E0,2.1199514E1,2.5058692E0,2.3075289E1],"tree_param":{"num_deleted":"0","num_feature":"26","num_nodes":"41","size_leaf_vector":"0"}},{"base_weights":[4.5434717E-2,-4.576837E-1,2.4415356E-1,3.478652E-1,-4.9938533E-1,-3.617328E-1,4.334344E-1,-5.247821E-1,1.8269001E-1,-4.264934E-1,2.6863542E-1,9.852464E-1,2.2890826E-1,2.2623128E-1,-5.1329637E-1,1.2644044E0,-2.410872E-1,1.2952943E0,1.1393639E-1,-3.0122727E-1,7.168182E-1,4.9591494E-1,1.529122E0,-3.954225E-1,1.5491845E-1,6.5478304E-4,1.3372269E0,1.0082245E0,-3.8299406E-1,-2.0854996E-1,6.4193976E-1,1.6884471E-1,1.6634734E0],"categories":[],"categories_nodes":[],"categories_segments":[],"categories_sizes":[],"default_left":[true,true,true,false,true,true,true,false,false,true,false,true,true,true,false,true,true,false,true,false,false,true,false,false,false,true,true,false,false,false,false,false,false],"id":20,"left_children":[1,3,5,-1,7,9,11,-1,-1,13,-1,15,17,19,-1,21,23,-1,25,-1,-1,27,-1,-1,-1,29,31,-1,-1,-1,-1,-1,-1],"loss_changes":[1.3792211E1,1.4868898E0,1.1480816E1,0E0,7.4680996E-1,1.0963485E0,8.3171425E0,0E0,0E0,1.3736873E0,0E0,7.2084312E0,6.782853E0,1.0696694E0,0E0,2.6159687E0,3.4112495E-1,0E0,7.221993E0,0E0,0E0,2.9660566E0,0E0,0E0,0E0,6.6681094E0,1.402853E0,0E0,0E0,0E0,0E0,0E0,0E0],"parents":[2147483647,0,0,1,1,2,2,4,4,5,5,6,6,9,9,11,11,12,12,13,13,15,15,16,16,18,18,21,21,25,25,26,26],"right_children":[2,4,6,-1,8,10,12,-1,-1,14,-1,16,18,20,-1,22,24,-1,26,-1,-1,28,-1,-1,-1,30,32,-1,-1,-1,-1,-1,-1],"split_conditions":[8.689095E1,-1.4483484E1,8.893288E0,1.0435956E-1,2.2203129E1,5.0547142E1,1.4603188E3,-1.5743464E-1,5.4807004E-2,-1.2553212E1,8.059063E-2,-2.5022514E0,-1.637761E1,5.5549003E-2,-1.5398891E-1,-4.9365377E0,1.1676407E1,3.885883E-1,2.3324019E-1,-9.036818E-2,2.1504547E-1,3.4074682E-1,4.5873663E-1,-1.1862675E-1,4.6475537E-2,5.4035545E1,9.76245E-2,3.0246735E-1,-1.1489822E-1,-6.256499E-2,1.9258194E-1,5.0653417E-2,4.9904203E-1],"split_indices":[7,20,11,0,15,9,2,0,0,12,0,22,18,1,0,8,8,0,1,0,0,0,0,0,0,9,5,0,0,0,0,0,0],"split_type":[0,0,0,0,0,0,0,0,0,0,0,0,0,0,0,0,0,0,0,0,0,0,0,0,0,0,0,0,0,0,0,0,0],"sum_hessian":[1.3583324E2,3.8090965E1,9.774227E1,1.5134742E0,3.657749E1,2.3049599E1,7.469267E1,3.5486767E1,1.0907252E0,2.119551E1,1.8540889E0,1.9165874E1,5.5526794E1,2.2993126E0,1.8896198E1,1.5586727E1,3.579148E0,4.404844E0,5.1121952E1,1.2940211E0,1.0052915E0,4.7296567E0,1.0857071E1,2.5764866E0,1.0026613E0,4.770483E1,3.417123E0,2.895032E0,1.8346246E0,3.647913E1,1.1225698E1,1.077134E0,2.3399892E0],"tree_param":{"num_deleted":"0","num_feature":"26","num_nodes":"33","size_leaf_vector":"0"}},{"base_weights":[1.2394641E-2,7.890237E-1,-4.2469403E-1,9.6856016E-1,-3.4116936E-1,6.3536894E-1,-4.547978E-1,1.0552983E0,4.6710238E-1,2.1485226E-1,-4.5991564E-1,4.0689602E-2,-4.8506218E-1,-9.168743E-3,1.0951406E0,-2.848164E-1,1.101858E0,-4.3097436E-1,1.0910469E0,-1.4729443E-1,-5.1753247E-1,3.8014278E-1,1.113475E0,-4.3937498E-1,1.20824024E-1,6.0391355E-1,-4.6220544E-1,-2.6760325E-1,-5.3037727E-1,-4.2469507E-1,2.2454111E-1],"categories":[],"categories_nodes":[],"categories_segments":[],"categories_sizes":[],"default_left":[true,true,true,true,true,false,true,true,true,false,false,true,true,false,true,true,false,false,false,true,true,false,false,false,false,false,false,true,false,false,false],"id":21,"left_children":[1,3,5,7,9,-1,11,13,15,-1,-1,17,19,-1,21,23,-1,-1,-1,25,27,-1,-1,-1,-1,-1,-1,29,-1,-1,-1],"loss_changes":[4.6851143E1,1.0414736E1,3.1078405E0,1.383728E0,5.974441E-1,0E0,1.3165092E0,1.536377E0,4.206871E0,0E0,0E0,3.393439E0,8.18449E-1,0E0,3.1593323E-2,3.369924E-1,0E0,0E0,0E0,2.3022623E0,9.570885E-2,0E0,0E0,0E0,0E0,0E0,0E0,5.311513E-1,0E0,0E0,0E0],"parents":[2147483647,0,0,1,1,2,2,3,3,4,4,6,6,7,7,8,8,11,11,12,12,14,14,15,15,19,19,20,20,27,27],"right_children":[2,4,6,8,10,-1,12,14,16,-1,-1,18,20,-1,22,24,-1,-1,-1,26,28,-1,-1,-1,-1,-1,-1,30,-1,-1,-1],"split_conditions":[6.925604E-2,1.9463505E3,2.3008157E-1,1.0167754E1,-4.838929E0,1.9061069E-1,-4.2531494E1,-1.2501183E1,6.57821E-2,6.445568E-2,-1.379747E-1,-1.9382252E0,-1.60709E0,-2.750623E-3,1.9880792E-1,1.9366889E0,3.305574E-1,-1.2929231E-1,3.2731408E-1,-6.3264E0,8.054307E-2,1.1404284E-1,3.340425E-1,-1.318125E-1,3.624721E-2,1.8117407E-1,-1.3866164E-1,3.9001603E0,-1.5911318E-1,-1.2740853E-1,6.736234E-2],"split_indices":[1,3,0,11,25,0,8,16,5,0,0,16,13,0,0,17,0,0,0,12,1,0,0,0,0,0,0,12,0,0,0],"split_type":[0,0,0,0,0,0,0,0,0,0,0,0,0,0,0,0,0,0,0,0,0,0,0,0,0,0,0,0,0,0,0],"sum_hessian":[1.3603125E2,4.869813E1,8.733312E1,4.2146046E1,6.5520854E0,1.8564042E0,8.5476715E1,3.49894E1,7.156648E0,1.0106139E0,5.5414715E0,4.9005513E0,8.0576164E1,1.2901543E0,3.3699245E1,3.5283425E0,3.628306E0,3.7888517E0,1.1116997E0,7.55216E0,7.3024E1,1.38591E0,3.2313335E1,2.4946558E0,1.0336864E0,1.9596833E0,5.5924764E0,4.636778E0,6.838723E1,3.6187348E0,1.0180433E0],"tree_param":{"num_deleted":"0","num_feature":"26","num_nodes":"31","size_leaf_vector":"0"}},{"base_weights":[-2.4285417E-2,1.6849507E-1,-3.8530305E-1,4.7133988E-1,-1.53853E-1,-5.2246803E-1,-3.5111737E-2,-4.3858662E-1,5.697254E-1,-4.9606696E-1,4.75547E-3,-3.1449315E-1,7.4825275E-1,7.238063E-1,-2.1812089E-2,-4.830204E-1,1.6253115E-1,3.0278212E-1,-4.787757E-1,-3.0377224E-1,1.2512745E0,9.335498E-1,3.536602E-2,-2.5644004E-1,6.52678E-1,3.7962827E-1,-3.499485E-1,-1.5106387E-1,1.0742334E0,6.535088E-1,-4.7666314E-1,-4.697088E-1,1.6229299E-1,7.1382874E-1,-1.969333E-1,2.1812898E-1,-4.6906114E-1],"categories":[],"categories_nodes":[],"categories_segments":[],"categories_sizes":[],"default_left":[true,true,true,true,true,false,true,false,true,false,true,true,true,true,true,false,true,false,false,false,false,true,true,true,false,true,true,false,false,false,false,false,false,false,false,false,false],"id":22,"left_children":[1,3,5,7,9,-1,11,-1,13,-1,15,17,19,21,23,-1,25,-1,-1,-1,-1,27,29,31,-1,33,35,-1,-1,-1,-1,-1,-1,-1,-1,-1,-1],"loss_changes":[9.400713E0,8.676975E0,2.239221E0,4.340334E0,2.3607197E0,0E0,3.3649538E0,0E0,3.813611E0,0E0,2.4395988E0,1.2852627E0,2.5260608E0,4.744566E0,1.6836691E0,0E0,2.795224E0,0E0,0E0,0E0,0E0,4.0259323E0,3.0859303E0,7.751599E-1,0E0,3.4718945E0,6.19347E-1,0E0,0E0,0E0,0E0,0E0,0E0,0E0,0E0,0E0,0E0],"parents":[2147483647,0,0,1,1,2,2,3,3,4,4,6,6,8,8,10,10,11,11,12,12,13,13,14,14,16,16,21,21,22,22,23,23,25,25,26,26],"right_children":[2,4,6,8,10,-1,12,-1,14,-1,16,18,20,22,24,-1,26,-1,-1,-1,-1,28,30,32,-1,34,36,-1,-1,-1,-1,-1,-1,-1,-1,-1,-1],"split_conditions":[3.9183742E-1,-4.9683237E0,9.106428E0,-1.7359425E1,2.872979E-1,-1.5674041E-1,-2.5630333E1,-1.3157599E-1,2.337582E1,-1.4882009E-1,1.6916039E1,4.0354663E-1,2.4202454E1,-2.866198E0,3.7117755E0,-1.4490612E-1,1.8159382E1,9.083464E-2,-1.4363272E-1,-9.113167E-2,3.7538236E-1,7.058591E-2,-4.72283E0,3.3408856E0,1.9580342E-1,-1.6809905E0,-1.0326151E1,-4.5319162E-2,3.2227004E-1,1.9605264E-1,-1.4299895E-1,-1.4091265E-1,4.8687898E-2,2.1414863E-1,-5.9079994E-2,6.5438695E-2,-1.4071834E-1],"split_indices":[0,22,10,10,0,0,6,0,11,0,9,0,9,16,23,0,11,0,0,0,0,1,20,8,0,16,20,0,0,0,0,0,0,0,0,0,0],"split_type":[0,0,0,0,0,0,0,0,0,0,0,0,0,0,0,0,0,0,0,0,0,0,0,0,0,0,0,0,0,0,0,0,0,0,0,0,0],"sum_hessian":[1.3314041E2,8.714107E1,4.5999344E1,4.469143E1,4.2449635E1,3.269948E1,1.3299869E1,4.0233455E0,4.0668083E1,1.2769822E1,2.9679813E1,1.0244703E1,3.0551658E0,3.208669E1,8.581395E0,6.7500544E0,2.292976E1,1.9762151E0,8.268488E0,1.1164063E0,1.9387593E0,2.4320925E1,7.7657647E0,6.826524E0,1.7548711E0,1.628874E1,6.64102E0,2.783958E0,2.1536966E1,3.3931284E0,4.3726363E0,4.4422584E0,2.3842654E0,1.0160935E1,6.1278043E0,1.0070184E0,5.6340013E0],"tree_param":{"num_deleted":"0","num_feature":"26","num_nodes":"37","size_leaf_vector":"0"}},{"base_weights":[-1.3961287E-2,-4.7481692E-1,1.8083973E-1,-4.9775922E-1,1.6553448E-1,2.7247897E-1,-4.2927268E-1,1.2336036E-1,-5.2271163E-1,4.1530517E-1,-3.0412266E-1,-5.007739E-1,1.8229686E-1,-3.7952405E-1,5.197201E-1,-4.088323E-1,5.417899E-1,2.1402572E-1,-4.895781E-1,6.2161183E-1,-3.4281442E-1,-5.2125394E-1,2.9559946E-2,-2.7508393E-1,7.0890206E-1,-4.6827734E-1,2.0344386E-1,6.2835354E-1,-3.713287E-1],"categories":[],"categories_nodes":[],"categories_segments":[],"categories_sizes":[],"default_left":[true,true,true,true,false,true,true,false,false,true,true,false,false,true,true,true,false,false,false,true,true,false,true,false,false,false,false,false,false],"id":23,"left_children":[1,3,5,7,-1,9,11,-1,-1,13,15,-1,-1,17,19,21,-1,-1,-1,23,25,-1,27,-1,-1,-1,-1,-1,-1],"loss_changes":[1.2225364E1,6.766691E-1,5.471491E0,6.735945E-1,0E0,7.0337677E0,6.5514183E-1,0E0,0E0,5.8113737E0,1.7475505E0,0E0,0E0,6.556262E-1,5.5050106E0,7.99088E-1,0E0,0E0,0E0,4.4379997E0,5.7543594E-1,0E0,1.2395543E0,0E0,0E0,0E0,0E0,0E0,0E0],"parents":[2147483647,0,0,1,1,2,2,3,3,5,5,6,6,9,9,10,10,13,13,14,14,15,15,19,19,20,20,22,22],"right_children":[2,4,6,8,-1,10,12,-1,-1,14,16,-1,-1,18,20,22,-1,-1,-1,24,26,-1,28,-1,-1,-1,-1,-1,-1],"split_conditions":[4.1640996E3,2.3662441E3,5.4038887E1,-6.4043846E0,4.9660347E-2,2.0647802E0,1.169915E0,3.700811E-2,-1.568135E-1,-3.8592181E0,1.9917591E1,-1.5023218E-1,5.468906E-2,-9.062155E0,3.7654847E-1,2.2372289E0,1.6253698E-1,6.420772E-2,-1.4687343E-1,3.4170577E-1,-3.891377E1,-1.5637618E-1,-4.3211222E-1,-8.252518E-2,2.1267062E-1,-1.404832E-1,6.103316E-2,1.8850607E-1,-1.11398615E-1],"split_indices":[4,3,9,11,0,14,24,0,0,25,10,0,0,24,20,22,0,0,0,0,6,0,19,0,0,0,0,0,0],"split_type":[0,0,0,0,0,0,0,0,0,0,0,0,0,0,0,0,0,0,0,0,0,0,0,0,0,0,0,0,0],"sum_hessian":[1.3422113E2,3.9451134E1,9.4770004E1,3.8301556E1,1.149577E0,8.287546E1,1.1894547E1,1.3269554E0,3.69746E1,6.66466E1,1.6228855E1,1.0811674E1,1.0828732E0,7.432675E0,5.921393E1,1.4901053E1,1.3278015E0,1.0148101E0,6.417865E0,5.3207775E1,6.0061507E0,1.17093E1,3.1917536E0,4.5292563E0,4.867852E1,5.0004234E0,1.0057273E0,1.0524074E0,2.1393461E0],"tree_param":{"num_deleted":"0","num_feature":"26","num_nodes":"29","size_leaf_vector":"0"}},{"base_weights":[-3.01094E-2,-3.4774444E-1,4.2672E-1,-4.8606285E-1,-1.2926874E-1,7.0094216E-1,-5.509658E-2,4.8502427E-2,-5.055297E-1,5.3164846E-1,-2.4427554E-1,8.493584E-1,-6.496551E-2,-4.6350783E-1,1.3542944E-1,-5.2599883E-1,-9.08494E-2,-3.4222516E-1,1.0670093E0,-3.0558312E-1,6.521282E-1,-3.2303512E-1,9.2081445E-1,-3.0507988E-1,5.9281135E-1,-4.3733552E-1,3.7454155E-1,-3.1919798E-1,2.217338E-1,4.5126308E-2,-5.1234233E-1,-2.8587905E-1,9.819317E-1,1.636761E-1,-4.527544E-1,6.364044E-1,-3.8382477E-1,6.382548E-1,-3.2836366E-1,1.04166E0,-1.4575062E-2,8.344524E-1,-3.054614E-1],"categories":[],"categories_nodes":[],"categories_segments":[],"categories_sizes":[],"default_left":[true,true,true,true,true,true,true,false,true,true,true,true,true,false,true,false,true,false,false,true,false,false,true,true,false,false,true,false,false,true,false,false,true,false,false,true,false,false,false,false,false,false,false],"id":24,"left_children":[1,3,5,7,9,11,13,-1,15,17,19,21,23,-1,25,-1,27,-1,-1,29,-1,-1,31,33,-1,-1,35,-1,-1,37,-1,-1,39,-1,-1,41,-1,-1,-1,-1,-1,-1,-1],"loss_changes":[1.9322405E1,2.309227E0,7.258423E0,5.209255E-1,2.5464163E0,4.0220165E0,1.6771533E0,0E0,3.436365E-1,2.7170143E0,1.7251655E0,2.7523308E0,1.222248E0,0E0,2.207317E0,0E0,3.1188792E-1,0E0,0E0,1.95695E0,0E0,0E0,2.3368301E0,4.541766E-1,0E0,0E0,2.441689E0,0E0,0E0,2.6043553E0,0E0,0E0,1.6079941E0,0E0,0E0,1.859338E0,0E0,0E0,0E0,0E0,0E0,0E0,0E0],"parents":[2147483647,0,0,1,1,2,2,3,3,4,4,5,5,6,6,8,8,9,9,10,10,11,11,12,12,14,14,16,16,19,19,22,22,23,23,26,26,29,29,32,32,35,35],"right_children":[2,4,6,8,10,12,14,-1,16,18,20,22,24,-1,26,-1,28,-1,-1,30,-1,-1,32,34,-1,-1,36,-1,-1,38,-1,-1,40,-1,-1,42,-1,-1,-1,-1,-1,-1,-1],"split_conditions":[4.2202872E-1,1.3039958E-1,1.2729761E-1,-7.3643446E0,-4.5486445E0,1.0468038E2,4.5117486E-1,1.4550729E-2,4.037097E-1,-5.690465E0,7.0865088E0,-7.736348E0,4.185295E0,-1.3905236E-1,1.18490115E-1,-1.5779966E-1,-9.407889E0,-1.02667555E-1,3.201028E-1,5.6438155E0,1.9563848E-1,-9.6910544E-2,-2.2368663E2,4.3026143E-1,1.778434E-1,-1.3120066E-1,2.28802E-1,-9.57594E-2,6.652014E-2,-3.056262E0,-1.537027E-1,-8.5763715E-2,4.3110275E0,4.910283E-2,-1.3582633E-1,1.9283806E1,-1.15147434E-1,1.9147645E-1,-9.85091E-2,3.12498E-1,-4.372519E-3,2.5033572E-1,-9.163842E-2],"split_indices":[0,1,5,11,23,7,0,0,0,18,23,22,16,0,1,0,8,0,0,11,0,0,6,0,0,0,1,0,0,25,0,0,20,0,0,15,0,0,0,0,0,0,0],"split_type":[0,0,0,0,0,0,0,0,0,0,0,0,0,0,0,0,0,0,0,0,0,0,0,0,0,0,0,0,0,0,0,0,0,0,0,0,0,0,0,0,0,0,0],"sum_hessian":[1.311389E2,7.749508E1,5.364381E1,4.670258E1,3.0792501E1,3.3896877E1,1.9746935E1,1.5885639E0,4.5114017E1,4.027077E0,2.6765425E1,2.8303347E1,5.59353E0,5.825857E0,1.3921078E1,4.273607E1,2.3779483E0,1.6669158E0,2.3601613E0,2.5668955E1,1.0964708E0,1.4236984E0,2.6879648E1,4.4905124E0,1.1030177E0,3.8558483E0,1.0065229E1,1.3618942E0,1.0160539E0,9.810285E0,1.585867E1,1.1185012E0,2.5761147E1,1.0498065E0,3.4407058E0,7.6013246E0,2.4639049E0,3.5166698E0,6.2936144E0,2.426165E1,1.4994973E0,6.3749037E0,1.2264206E0],"tree_param":{"num_deleted":"0","num_feature":"26","num_nodes":"43","size_leaf_vector":"0"}},{"base_weights":[1.4722799E-2,4.4849765E-1,-3.164046E-1,-9.379644E-2,6.0026455E-1,7.524053E-1,-4.2277017E-1,-3.9900303E-1,5.47417E-1,-1.16905816E-1,7.3156047E-1,-1.6345993E-2,9.6691716E-1,-2.2125651E-1,-5.071198E-1,2.1833374E-1,-4.9374574E-1,1.2807608E0,-3.5761744E-1,-4.455788E-1,5.9059674E-1,-3.3385116E-1,7.849027E-1,1.4493334E-1,1.1235323E0,-4.0334266E-1,4.020419E-1,-5.267317E-1,4.8678275E-2,2.2632106E-1,8.8920534E-1,2.296285E-1,-5.073367E-1,-3.8667545E-1,1.0899475E0,9.342789E-1,-5.118897E-1,1.0133178E0,2.3844521E-1,-3.046024E-1,7.1452945E-1,1.8475989E-1,1.4326849E0],"categories":[],"categories_nodes":[],"categories_segments":[],"categories_sizes":[],"default_left":[true,true,true,true,true,true,true,true,true,true,true,false,true,true,true,false,false,false,false,false,false,false,true,false,false,true,true,false,false,true,true,true,false,false,true,false,false,false,false,false,false,false,false],"id":25,"left_children":[1,3,5,7,9,11,13,15,17,19,21,-1,23,25,27,-1,-1,-1,-1,-1,-1,-1,29,-1,-1,31,33,-1,-1,35,37,39,-1,-1,41,-1,-1,-1,-1,-1,-1,-1,-1],"loss_changes":[1.9743782E1,4.9526196E0,9.183043E0,2.93353E0,4.4751644E0,1.2390151E0,1.1041574E0,6.9139683E-1,3.7072659E0,2.1411607E0,2.5092716E0,0E0,5.858846E-1,2.7599735E0,5.6707287E-1,0E0,0E0,0E0,0E0,0E0,0E0,0E0,2.0100765E0,0E0,0E0,1.3154161E0,3.500927E0,0E0,0E0,4.30046E0,2.3139877E0,1.0617748E0,0E0,0E0,7.5707984E-1,0E0,0E0,0E0,0E0,0E0,0E0,0E0,0E0],"parents":[2147483647,0,0,1,1,2,2,3,3,4,4,5,5,6,6,7,7,8,8,9,9,10,10,12,12,13,13,14,14,22,22,25,25,26,26,29,29,30,30,31,31,34,34],"right_children":[2,4,6,8,10,12,14,16,18,20,22,-1,24,26,28,-1,-1,-1,-1,-1,-1,-1,30,-1,-1,32,34,-1,-1,36,38,40,-1,-1,42,-1,-1,-1,-1,-1,-1,-1,-1],"split_conditions":[3.3768183E-1,-5.260317E0,5.398939E-2,2.0465078E0,3.9087705E-2,-2.811644E0,3.8054705E-1,-3.2460274E1,8.8198505E-2,1.0167754E1,-3.757296E0,-4.903798E-3,-6.4575872E0,-3.9732477E-1,3.1953077E0,6.5500125E-2,-1.4812373E-1,3.8422826E-1,-1.0728524E-1,-1.3367365E-1,1.7717902E-1,-1.0015535E-1,-1.3916782E1,4.3480005E-2,3.370597E-1,5.5962056E-2,-2.920816E-1,-1.5801953E-1,1.46034835E-2,-5.0242057E0,-1.4599385E2,-5.20384E0,-1.5220101E-1,-1.1600264E-1,5.37748E3,2.802837E-1,-1.5356691E-1,3.0399537E-1,7.153357E-2,-9.138073E-2,2.1435885E-1,5.542797E-2,4.298055E-1],"split_indices":[0,22,1,21,1,25,0,8,1,11,11,0,22,16,22,0,0,0,0,0,0,0,14,0,0,5,19,0,0,18,6,20,0,0,4,0,0,0,0,0,0,0,0],"split_type":[0,0,0,0,0,0,0,0,0,0,0,0,0,0,0,0,0,0,0,0,0,0,0,0,0,0,0,0,0,0,0,0,0,0,0,0,0,0,0,0,0,0,0],"sum_hessian":[1.3547029E2,5.849186E1,7.697843E1,1.2873651E1,4.561821E1,6.4176087E0,7.056082E1,8.97801E0,3.895641E0,7.0761495E0,3.854206E1,1.6016252E0,4.815984E0,2.1889425E1,4.86714E1,1.0209676E0,7.957042E0,1.9226103E0,1.9730307E0,5.084387E0,1.9917625E0,1.5869526E0,3.6955105E1,1.078894E0,3.7370896E0,1.721364E1,4.6757855E0,4.7063026E1,1.6083734E0,6.3135295E0,3.0641577E1,2.2585616E0,1.4955077E1,2.3822796E0,2.2935057E0,3.0872247E0,3.226305E0,2.5265778E1,5.3758E0,1.251533E0,1.0070287E0,1.0526015E0,1.2409042E0],"tree_param":{"num_deleted":"0","num_feature":"26","num_nodes":"43","size_leaf_vector":"0"}},{"base_weights":[-7.056417E-3,-4.544587E-1,5.814825E-1,-5.039599E-1,8.059906E-1,-2.3353985E-1,8.1696814E-1,2.0584434E-1,-5.16984E-1,1.1780999E-1,1.1642152E0,-4.3099758E-1,9.9283135E-1,2.897893E-1,1.0084279E0,-5.3003854E-1,-1.2604288E-2,1.8662448E-1,-5.017334E-1,8.17958E-1,-2.4214731E-1,1.7066674E-1,1.067085E0,-3.0434683E-1,1.127736E0,-4.6096188E-1,3.7013218E-1,-3.160334E-1,6.5295756E-1,1.3630684E-1,1.0979412E0,4.3078503E-1,1.1515491E0],"categories":[],"categories_nodes":[],"categories_segments":[],"categories_sizes":[],"default_left":[true,true,true,true,true,true,true,false,true,false,false,true,false,true,true,false,false,false,false,true,true,true,true,false,false,false,false,false,false,false,true,false,false],"id":26,"left_children":[1,3,5,7,9,11,13,-1,15,-1,-1,17,-1,19,21,-1,-1,-1,-1,23,25,27,29,-1,-1,-1,-1,-1,-1,-1,31,-1,-1],"loss_changes":[3.5428204E1,5.1749563E0,1.1344315E1,7.919693E-1,6.696918E-1,3.770793E0,4.280964E0,0E0,4.7468376E-1,0E0,0E0,6.435592E-1,0E0,3.9837503E0,1.4313965E0,0E0,0E0,0E0,0E0,2.773264E0,1.1734077E0,9.9010414E-1,7.2618103E-1,0E0,0E0,0E0,0E0,0E0,0E0,0E0,5.545349E-1,0E0,0E0],"parents":[2147483647,0,0,1,1,2,2,3,3,4,4,5,5,6,6,8,8,11,11,13,13,14,14,19,19,20,20,21,21,22,22,30,30],"right_children":[2,4,6,8,10,12,14,-1,16,-1,-1,18,-1,20,22,-1,-1,-1,-1,24,26,28,30,-1,-1,-1,-1,-1,-1,-1,32,-1,-1],"split_conditions":[8.926945E0,6.902034E1,4.5322517E1,-1.2959597E1,3.7160635E-1,5.125309E-1,1.24911755E-1,6.1753307E-2,5.458102E0,3.5343E-2,3.4926456E-1,9.392595E0,2.9784942E-1,1.4461589E1,4.1356966E-1,-1.5901157E-1,-3.7812865E-3,5.5987347E-2,-1.5052003E-1,-1.0043045E2,1.5173421E1,1.7615074E1,-2.0280317E1,-9.130405E-2,3.383208E-1,-1.3828857E-1,1.1103966E-1,-9.4810024E-2,1.9588728E-1,4.0892053E-2,-1.1968046E1,1.2923552E-1,3.4546474E-1],"split_indices":[17,9,9,22,24,0,5,0,25,0,0,17,0,15,0,0,0,0,0,6,17,15,14,0,0,0,0,0,0,0,20,0,0],"split_type":[0,0,0,0,0,0,0,0,0,0,0,0,0,0,0,0,0,0,0,0,0,0,0,0,0,0,0,0,0,0,0,0,0],"sum_hessian":[1.3254393E2,7.543029E1,5.7113644E1,7.315738E1,2.2729087E0,1.2804648E1,4.4308994E1,1.0514097E0,7.210597E1,1.2330277E0,1.0398811E0,1.1587505E1,1.2171427E0,1.2474472E1,3.1834522E1,7.023719E1,1.868781E0,1.0223806E0,1.05651245E1,5.9895997E0,6.484872E0,2.338919E0,2.9495604E1,1.29942E0,4.69018E0,4.959573E0,1.5252988E0,1.3357159E0,1.003203E0,1.12026E0,2.8375343E1,2.7825172E0,2.5592827E1],"tree_param":{"num_deleted":"0","num_feature":"26","num_nodes":"33","size_leaf_vector":"0"}},{"base_weights":[-2.386711E-2,-3.5895708E-1,7.839458E-1,-5.0082964E-1,2.201677E-2,1.9313765E-1,1.0166973E0,-5.285259E-1,2.9686825E-2,7.752357E-1,-2.3734738E-1,9.146163E-1,-2.921286E-1,-3.3224875E-1,1.1009306E0,6.7410064E-1,-3.7687305E-1,1.4463854E0,1.710647E-1,-5.011188E-1,1.5206708E-1,4.776474E-1,-4.8985678E-1,1.157006E0,5.5498682E-2,-3.9723316E-1,9.6477765E-1,-2.794583E-1,6.7252934E-1,7.69971E-2,1.2026117E0,1.949538E-1,-4.2832658E-1,1.0783747E0,2.1629171E-2,4.053753E-1,1.2336998E0],"categories":[],"categories_nodes":[],"categories_segments":[],"categories_sizes":[],"default_left":[true,true,true,true,true,true,true,false,true,true,true,false,true,false,true,false,false,false,true,false,true,false,false,true,false,false,false,true,true,false,true,false,false,false,false,false,false],"id":27,"left_children":[1,3,5,7,9,11,13,-1,15,17,19,-1,21,-1,23,-1,-1,-1,25,-1,27,-1,-1,29,-1,-1,-1,31,33,-1,35,-1,-1,-1,-1,-1,-1],"loss_changes":[3.5880806E1,5.0722857E0,5.1490917E0,1.018858E0,5.335001E0,4.5457325E0,3.5077953E0,0E0,1.3896015E0,2.5861597E0,2.1694527E0,0E0,1.4614131E0,0E0,1.4751568E0,0E0,0E0,0E0,2.55362E0,0E0,2.2085292E0,0E0,0E0,1.1324425E0,0E0,0E0,0E0,4.8077083E-1,1.1315093E0,0E0,8.9653015E-2,0E0,0E0,0E0,0E0,0E0,0E0],"parents":[2147483647,0,0,1,1,2,2,3,3,4,4,5,5,6,6,8,8,9,9,10,10,12,12,14,14,18,18,20,20,23,23,27,27,28,28,30,30],"right_children":[2,4,6,8,10,12,14,-1,16,18,20,-1,22,-1,24,-1,-1,-1,26,-1,28,-1,-1,30,-1,-1,-1,32,34,-1,36,-1,-1,-1,-1,-1,-1],"split_conditions":[2.8582646E3,2.4207925E3,1.4289603E0,1.5005942E1,-3.3100152E0,-2.9833345E0,-1.1983563E2,-1.5855777E-1,-4.4168156E-1,2.3065122E3,-1.3032117E0,2.743849E-1,1.27127E0,-9.967463E-2,1.1272594E1,2.022302E-1,-1.1306192E-1,4.3391564E-1,1.6322139E-1,-1.5033564E-1,-6.930063E1,1.4329423E-1,-1.4695704E-1,-4.0961075E0,1.6649606E-2,-1.1916995E-1,2.894333E-1,2.0931885E3,4.2589827E0,2.3099132E-2,2.3664327E0,5.848614E-2,-1.2849797E-1,3.2351243E-1,6.4887516E-3,1.2161259E-1,3.7010995E-1],"split_indices":[3,3,14,10,21,16,6,0,11,2,22,0,9,0,11,0,0,0,1,0,6,0,0,8,0,0,0,2,10,0,12,0,0,0,0,0,0],"split_type":[0,0,0,0,0,0,0,0,0,0,0,0,0,0,0,0,0,0,0,0,0,0,0,0,0,0,0,0,0,0,0,0,0,0,0,0,0],"sum_hessian":[1.3051355E2,9.2640755E1,3.7872795E1,6.727377E1,2.5366985E1,1.1220606E1,2.665219E1,6.3939487E1,3.3342834E0,5.988066E0,1.9378918E1,4.156331E0,7.064275E0,1.393397E0,2.5258793E1,1.0352733E0,2.29901E0,2.1763952E0,3.8116713E0,1.1382253E1,7.9966655E0,1.1544002E0,5.9098744E0,2.387163E1,1.3871638E0,2.5123534E0,1.2993177E0,4.625025E0,3.3716407E0,1.0761089E0,2.279552E1,1.0307304E0,3.5942945E0,1.6722351E0,1.6994057E0,1.3824713E0,2.141305E1],"tree_param":{"num_deleted":"0","num_feature":"26","num_nodes":"37","size_leaf_vector":"0"}},{"base_weights":[-5.3583685E-4,-2.4545895E-1,2.1907637E-1,-3.9738783E-1,7.6064795E-2,3.1071244E-2,8.3116215E-1,-1.5677765E-1,-5.241938E-1,-4.241232E-1,7.2296196E-1,-4.909062E-1,1.5464522E-1,1.0060606E0,-3.647834E-1,-3.5143462E-1,4.828689E-1,2.0202301E-1,-4.9550673E-1,-3.54539E-1,1.0240408E0,4.5148352E-1,-2.6796E-1,-3.2310954E-1,1.1682656E0,1.9354913E-1,-4.9202922E-1,-3.4126008E-1,1.1673344E0,1.01617865E-1,1.1744981E0,-2.2399665E-1,6.365363E-1,4.513752E-1,-4.527481E-1,1.2506853E0,1.3847248E-1,7.05184E-1,-3.1376043E-1,1.3088698E0,4.0245163E-1,-4.998417E-1,6.1064124E-1,-7.046693E-2,8.024878E-1,9.8905647E-1,-3.3607826E-1,-5.102388E-1,2.0780891E-1,1.5970668E-1,1.3322595E0],"categories":[],"categories_nodes":[],"categories_segments":[],"categories_sizes":[],"default_left":[true,true,true,true,true,true,true,true,false,true,true,false,true,true,false,true,true,false,false,false,true,true,true,false,true,true,false,false,false,false,true,true,true,true,true,true,false,false,false,false,false,false,false,false,false,false,false,false,false,false,false],"id":28,"left_children":[1,3,5,7,9,11,13,15,-1,17,19,-1,21,23,-1,25,27,-1,-1,-1,29,31,33,-1,35,37,-1,-1,-1,-1,39,41,43,45,47,49,-1,-1,-1,-1,-1,-1,-1,-1,-1,-1,-1,-1,-1,-1,-1],"loss_changes":[7.329283E0,3.1769567E0,8.24171E0,1.2574587E0,7.2668595E0,3.6881654E0,3.8900661E0,2.2341385E0,0E0,6.704855E-1,3.5259318E0,0E0,5.896718E0,3.6029015E0,0E0,1.1135823E0,2.8181293E0,0E0,0E0,0E0,9.739218E-1,3.5697803E0,2.8128905E0,0E0,9.7686577E-1,1.1149794E0,0E0,0E0,0E0,0E0,1.6602707E-1,1.832971E0,2.6121893E0,2.2426136E0,7.179203E-1,8.926697E-1,0E0,0E0,0E0,0E0,0E0,0E0,0E0,0E0,0E0,0E0,0E0,0E0,0E0,0E0,0E0],"parents":[2147483647,0,0,1,1,2,2,3,3,4,4,5,5,6,6,7,7,9,9,10,10,12,12,13,13,15,15,16,16,20,20,21,21,22,22,24,24,25,25,30,30,31,31,32,32,33,33,34,34,35,35],"right_children":[2,4,6,8,10,12,14,16,-1,18,20,-1,22,24,-1,26,28,-1,-1,-1,30,32,34,-1,36,38,-1,-1,-1,-1,40,42,44,46,48,50,-1,-1,-1,-1,-1,-1,-1,-1,-1,-1,-1,-1,-1,-1,-1],"split_conditions":[-4.796486E0,-3.7792878E0,1.2820979E1,1.1828976E0,4.1614685E0,3.1820267E-1,1.9617099E-1,2.267227E0,-1.5725815E-1,-6.6563745E0,1.9589124E3,-1.4727187E-1,-8.528287E1,-9.188963E0,-1.0943503E-1,6.539636E-2,1.0409205E2,6.0606908E-2,-1.4865203E-1,-1.0636171E-1,-1.1994486E1,-1.9695947E2,-3.5921042E0,-9.6932866E-2,2.6769953E0,-7.8587065E0,-1.4760877E-1,-1.02378026E-1,3.5020036E-1,3.048536E-2,-7.243252E0,2.5261521E0,-4.0937786E0,2.9438389E1,3.7260117E3,4.338806E-2,4.1541748E-2,2.115552E-1,-9.412813E-2,3.9266098E-1,1.207355E-1,-1.4995252E-1,1.8319237E-1,-2.114008E-2,2.4074635E-1,2.9671696E-1,-1.00823484E-1,-1.5307166E-1,6.2342677E-2,4.7912005E-2,3.9967787E-1],"split_indices":[16,20,13,21,17,0,1,23,0,19,3,0,6,12,0,1,7,0,0,0,12,6,22,0,25,10,0,0,0,0,16,21,25,9,2,5,0,0,0,0,0,0,0,0,0,0,0,0,0,0,0],"split_type":[0,0,0,0,0,0,0,0,0,0,0,0,0,0,0,0,0,0,0,0,0,0,0,0,0,0,0,0,0,0,0,0,0,0,0,0,0,0,0,0,0,0,0,0,0,0,0,0,0,0,0],"sum_hessian":[1.342624E2,6.341782E1,7.084459E1,4.290708E1,2.0510738E1,5.5001408E1,1.5843184E1,1.5580308E1,2.7326773E1,1.1761213E1,8.749526E0,9.959562E0,4.5041843E1,1.3960357E1,1.8828276E0,1.2290614E1,3.2896943E0,1.0163255E0,1.0744887E1,1.8720982E0,6.8774276E0,2.6417696E1,1.8624147E1,1.4104671E0,1.254989E1,2.4432502E0,9.847363E0,1.7200698E0,1.5696244E0,1.1994206E0,5.678007E0,5.635722E0,2.0781973E1,3.5116153E0,1.5112533E1,1.1421284E1,1.1286064E0,1.022244E0,1.4210063E0,4.2440257E0,1.4339814E0,4.53729E0,1.0984318E0,4.0601E0,1.6721874E1,1.9346188E0,1.5769964E0,1.4111885E1,1.0006473E0,1.0003492E0,1.0420935E1],"tree_param":{"num_deleted":"0","num_feature":"26","num_nodes":"51","size_leaf_vector":"0"}},{"base_weights":[2.4790313E-2,4.9143565E-1,-1.1160234E-1,7.585423E-1,-1.8263003E-1,-5.142968E-1,-1.6429776E-2,-4.0082926E-1,9.3980086E-1,-3.692732E-1,6.7444855E-1,1.2725036E-1,-3.3988118E-1,2.212969E-1,1.2831264E0,-4.7262126E-1,1.9541469E-1,2.483619E-1,-3.480451E-1,1.044028E0,-4.4534925E-1,7.959022E-1,-4.3848965E-1,1.4888133E0,1.808575E-1,1.252202E-1,1.0061052E0,2.1047948E-1,-4.9485308E-1,1.3208652E-1,-4.8084286E-1,9.2460185E-1,1.8984865E-1,5.984637E-1,-3.0214256E-1,1.1310776E0,5.697155E-2,1.504485E0,-5.694398E-2,-3.096931E-1,7.0156527E-1,-5.195227E-1,-5.9215456E-2],"categories":[],"categories_nodes":[],"categories_segments":[],"categories_sizes":[],"default_left":[true,true,true,true,true,false,true,false,true,true,false,true,true,true,true,false,false,true,true,false,true,true,false,false,true,true,true,true,false,false,true,false,false,false,false,false,false,false,false,false,false,false,false],"id":29,"left_children":[1,3,5,7,9,-1,11,-1,13,15,-1,17,19,21,23,-1,-1,25,27,-1,29,31,-1,-1,33,35,37,39,-1,-1,41,-1,-1,-1,-1,-1,-1,-1,-1,-1,-1,-1,-1],"loss_changes":[8.663774E0,5.6799855E0,4.0342283E0,5.049715E0,1.7752675E0,0E0,4.056317E0,0E0,4.5335903E0,5.872927E-1,0E0,3.570156E0,4.381369E0,3.201071E0,2.6796017E0,0E0,0E0,4.42877E0,1.1459948E0,0E0,5.888748E-1,1.6580987E-1,0E0,0E0,8.2297707E-1,2.8964791E0,3.6256003E0,1.072058E0,0E0,0E0,3.6658287E-1,0E0,0E0,0E0,0E0,0E0,0E0,0E0,0E0,0E0,0E0,0E0,0E0],"parents":[2147483647,0,0,1,1,2,2,3,3,4,4,6,6,8,8,9,9,11,11,12,12,13,13,14,14,17,17,18,18,20,20,21,21,24,24,25,25,26,26,27,27,30,30],"right_children":[2,4,6,8,10,-1,12,-1,14,16,-1,18,20,22,24,-1,-1,26,28,-1,30,32,-1,-1,34,36,38,40,-1,-1,42,-1,-1,-1,-1,-1,-1,-1,-1,-1,-1,-1,-1],"split_conditions":[-1.5089729E1,4.700695E0,2.99212E-1,1.3734692E1,7.699355E0,-1.5428905E-1,1.8102325E0,-1.2024878E-1,-1.3423045E1,2.153923E1,2.0233457E-1,1.2448506E1,3.1176496E-1,-3.7025627E1,1.3887162E0,-1.4178638E-1,5.862441E-2,9.986878E0,-1.2578585E0,3.1320843E-1,-2.808714E0,-7.7373E0,-1.315469E-1,4.46644E-1,-1.0088549E1,-3.0197363E0,7.874073E0,-3.6437068E0,-1.4845593E-1,3.9625958E-2,3.331121E1,2.7738056E-1,5.6954596E-2,1.7953911E-1,-9.064277E-2,3.393233E-1,1.7091466E-2,4.5134553E-1,-1.7083194E-2,-9.2907935E-2,2.1046959E-1,-1.5585682E-1,-1.7764637E-2],"split_indices":[12,21,0,13,23,0,23,0,18,15,0,10,0,8,25,0,0,10,17,0,19,20,0,0,18,15,8,21,0,0,11,0,0,0,0,0,0,0,0,0,0,0,0],"split_type":[0,0,0,0,0,0,0,0,0,0,0,0,0,0,0,0,0,0,0,0,0,0,0,0,0,0,0,0,0,0,0,0,0,0,0,0,0,0,0,0,0,0,0],"sum_hessian":[1.3426056E2,2.9777742E1,1.0448281E2,2.1237001E1,8.540741E0,1.9131159E1,8.5351654E1,2.707546E0,1.8529455E1,7.4808173E0,1.0599238E0,5.9519238E1,2.5832415E1,6.522948E0,1.2006508E1,6.461319E0,1.0194982E0,4.781325E1,1.1705988E1,1.199115E0,2.46333E1,3.3762681E0,3.1466799E0,9.822852E0,2.183656E0,4.213164E1,5.6816063E0,2.3462133E0,9.359775E0,1.268878E0,2.3364422E1,2.351335E0,1.024933E0,1.0429E0,1.140756E0,1.6875412E0,4.0444103E1,3.585428E0,2.0961785E0,1.3187379E0,1.0274755E0,2.1188423E1,2.175999E0],"tree_param":{"num_deleted":"0","num_feature":"26","num_nodes":"43","size_leaf_vector":"0"}},{"base_weights":[4.362579E-2,-4.4127825E-1,2.0901158E-1,2.9079854E-1,-4.8656467E-1,-3.3200896E-1,3.5171303E-1,-5.1536345E-1,1.8706563E-1,1.9900519E-1,-4.1146615E-1,4.7465512E-1,-2.822938E-1,-3.076353E-1,6.9450575E-1,-5.016343E-1,2.841468E-1,6.9113386E-1,1.8170232E-1,-4.9432528E-1,4.0850157E-1,-3.721193E-1,7.674934E-1,6.842324E-1,-1.37734E-1,-3.3156875E-1,1.1153527E0,4.3081146E-1,1.0183109E0,9.9166685E-1,-3.8415205E-1,5.3898424E-1,-2.4524711E-1],"categories":[],"categories_nodes":[],"categories_segments":[],"categories_sizes":[],"default_left":[true,true,true,false,true,true,true,false,false,true,true,true,true,false,false,false,false,true,true,false,true,false,true,true,true,false,false,false,false,false,false,false,false],"id":30,"left_children":[1,3,5,-1,7,9,11,-1,-1,13,15,17,19,-1,-1,-1,-1,21,23,-1,25,-1,27,29,31,-1,-1,-1,-1,-1,-1,-1,-1],"loss_changes":[1.0551923E1,1.251864E0,7.6777077E0,0E0,7.155533E-1,9.6601367E-1,6.2121916E0,0E0,0E0,1.067541E0,1.3062263E0,4.0401716E0,2.1488657E0,0E0,0E0,0E0,0E0,3.3234901E0,4.792832E0,0E0,2.289285E0,0E0,2.5368862E0,4.172201E0,1.4947116E0,0E0,0E0,0E0,0E0,0E0,0E0,0E0,0E0],"parents":[2147483647,0,0,1,1,2,2,4,4,5,5,6,6,9,9,10,10,11,11,12,12,17,17,18,18,20,20,22,22,23,23,24,24],"right_children":[2,4,6,-1,8,10,12,-1,-1,14,16,18,20,-1,-1,-1,-1,22,24,-1,26,-1,28,30,32,-1,-1,-1,-1,-1,-1,-1,-1],"split_conditions":[8.689095E1,-1.4483484E1,8.893288E0,8.723956E-2,1.1432685E1,-1.2553212E1,4.2736113E-1,-1.5460904E-1,5.611969E-2,7.321623E-2,5.0547142E1,6.72299E-1,3.1378815E1,-9.2290595E-2,2.0835173E-1,-1.504903E-1,8.524404E-2,5.2498125E-2,-1.7692766E1,-1.482976E-1,5.16911E1,-1.116358E-1,-1.4535435E-2,1.5930832E1,3.0556903E0,-9.947063E-2,3.3460584E-1,1.2924345E-1,3.054933E-1,2.9750007E-1,-1.1524562E-1,1.6169527E-1,-7.357413E-2],"split_indices":[7,20,11,0,21,12,0,0,0,1,9,23,11,0,0,0,0,1,12,0,9,0,10,15,15,0,0,0,0,0,0,0,0],"split_type":[0,0,0,0,0,0,0,0,0,0,0,0,0,0,0,0,0,0,0,0,0,0,0,0,0,0,0,0,0,0,0,0,0],"sum_hessian":[1.294262E2,3.249222E1,9.693397E1,1.577054E0,3.0915169E1,1.995447E1,7.69795E1,2.9872993E1,1.0421742E0,2.4013877E0,1.7553083E1,6.4687164E1,1.2292333E1,1.3748106E0,1.0265771E0,1.5785732E1,1.7673502E0,3.641727E1,2.8269896E1,9.623059E0,2.6692736E0,2.180607E0,3.4236664E1,1.0542566E1,1.772733E1,1.5633616E0,1.1059119E0,1.5776667E1,1.8459995E1,8.242532E0,2.300034E0,1.8801205E0,1.584721E1],"tree_param":{"num_deleted":"0","num_feature":"26","num_nodes":"33","size_leaf_vector":"0"}},{"base_weights":[4.9839667E-3,6.3774544E-1,-4.045636E-1,7.739469E-1,-3.1846195E-1,-1.7313091E-2,-4.932213E-1,1.6501632E-1,8.103482E-1,1.9291294E-1,-4.4440487E-1,-3.3882868E-1,9.1161144E-1,-6.9308236E-2,-5.228929E-1,-3.6535585E-1,5.6965697E-1,8.7119764E-1,3.763345E-1,1.2581308E-1,-4.7898468E-1,1.2851825E-1,1.1728464E0,6.814912E-1,-4.1181603E-1,3.0386227E-1,8.8667965E-1,7.917657E-1,-4.0022004E-1,-3.2911533E-1,5.851068E-1,9.248312E-1,3.0072457E-1],"categories":[],"categories_nodes":[],"categories_segments":[],"categories_sizes":[],"default_left":[true,true,true,true,true,true,true,true,true,false,false,true,true,true,false,false,false,true,true,true,false,false,false,false,false,false,false,true,false,false,false,false,false],"id":31,"left_children":[1,3,5,7,9,11,13,15,17,-1,-1,19,21,23,-1,-1,-1,25,27,29,-1,-1,-1,-1,-1,-1,-1,31,-1,-1,-1,-1,-1],"loss_changes":[3.2562393E1,6.676113E0,2.6106472E0,8.3060837E-1,5.277866E-1,4.8629775E0,7.441101E-1,1.0042676E0,7.4952316E-1,0E0,0E0,8.454175E-1,7.067542E-1,1.6207333E0,0E0,0E0,0E0,3.815651E-2,2.5030985E0,9.418426E-1,0E0,0E0,0E0,0E0,0E0,0E0,0E0,3.229332E-2,0E0,0E0,0E0,0E0,0E0],"parents":[2147483647,0,0,1,1,2,2,3,3,4,4,5,5,6,6,7,7,8,8,11,11,12,12,13,13,17,17,18,18,19,19,27,27],"right_children":[2,4,6,8,10,12,14,16,18,-1,-1,20,22,24,-1,-1,-1,26,28,30,-1,-1,-1,-1,-1,-1,-1,32,-1,-1,-1,-1,-1],"split_conditions":[6.925604E-2,1.9463505E3,3.2273972E3,-1.2104255E1,1.9309109E1,8.2145765E-2,-1.9012104E0,-8.326002E0,1.0167754E1,5.7873882E-2,-1.3332146E-1,2.8462029E1,-4.446101E0,-1.9173382E1,-1.5686788E-1,-1.0960676E-1,1.708971E-1,1.9880792E-1,-1.5942165E0,-1.443052E0,-1.4369541E-1,3.8555477E-2,3.5185394E-1,2.0444737E-1,-1.2354481E-1,9.115869E-2,2.660039E-1,-1.04888E1,-1.2006602E-1,-9.87346E-2,1.7553204E-1,2.7744937E-1,9.0217374E-2],"split_indices":[1,3,4,16,9,5,15,14,11,0,0,9,20,8,0,0,0,0,10,23,0,0,0,0,0,0,0,10,0,0,0,0,0],"split_type":[0,0,0,0,0,0,0,0,0,0,0,0,0,0,0,0,0,0,0,0,0,0,0,0,0,0,0,0,0,0,0,0,0],"sum_hessian":[1.2365712E2,4.8368835E1,7.5288284E1,4.250506E1,5.8637795E0,1.4248244E1,6.1040043E1,2.7097034E0,3.9795353E1,1.053684E0,4.8100953E0,1.1056618E1,3.1916258E0,4.2111998E0,5.6828842E1,1.2146795E0,1.495024E0,3.401859E1,5.7767644E0,2.5859785E0,8.470639E0,1.1715834E0,2.0200424E0,1.009218E0,3.2019818E0,1.4516029E0,3.2566986E1,3.7506835E0,2.0260806E0,1.4415556E0,1.1444229E0,2.2559443E0,1.4947394E0],"tree_param":{"num_deleted":"0","num_feature":"26","num_nodes":"33","size_leaf_vector":"0"}},{"base_weights":[-2.3679743E-2,1.3370326E-1,-3.6399257E-1,3.5905012E-1,-1.3505185E-1,-5.1330197E-1,-1.8506069E-2,-4.242108E-1,4.3149644E-1,-3.6308992E-1,7.391557E-2,5.9538233E-1,-2.9573047E-1,5.2028E-1,-2.1806651E-1,-4.4761983E-1,6.533641E-2,3.0316764E-1,-4.6123493E-1,2.5579084E-2,8.8264674E-1,7.377579E-2,-4.5894033E-1,-1.7599182E-1,6.211991E-1,1.5565334E-1,-4.641879E-1,1.9596472E-1,-5.035583E-1,7.022598E-1,-3.6783767E-1,-9.8286875E-2,5.701112E-1,-3.353537E-1,5.221763E-1,-4.442754E-1,3.9284807E-1,9.7256416E-1,2.88343E-1,-3.0160594E-1,5.118906E-1,5.813746E-1,-3.208826E-1,-3.4591284E-1,8.11322E-1],"categories":[],"categories_nodes":[],"categories_segments":[],"categories_sizes":[],"default_left":[true,true,true,true,true,false,true,false,true,true,true,true,true,true,true,true,true,true,false,false,false,true,false,true,true,true,false,false,false,false,false,true,true,false,false,false,false,false,false,false,false,false,false,false,false],"id":32,"left_children":[1,3,5,7,9,-1,11,-1,13,15,17,19,21,23,25,27,29,31,-1,-1,-1,33,-1,35,37,39,-1,-1,-1,-1,-1,41,43,-1,-1,-1,-1,-1,-1,-1,-1,-1,-1,-1,-1],"loss_changes":[6.88715E0,5.380233E0,2.087102E0,2.9157681E0,1.9747602E0,0E0,2.4398968E0,0E0,2.6842365E0,7.4325824E-1,2.8587148E0,7.091161E-1,6.267975E-1,2.8857288E0,6.301033E-1,6.960964E-1,1.3954685E0,1.783386E0,0E0,0E0,0E0,8.8577163E-1,0E0,1.0568054E0,3.7814894E0,6.6865414E-1,0E0,0E0,0E0,0E0,0E0,1.2895054E0,2.4522307E0,0E0,0E0,0E0,0E0,0E0,0E0,0E0,0E0,0E0,0E0,0E0,0E0],"parents":[2147483647,0,0,1,1,2,2,3,3,4,4,6,6,8,8,9,9,10,10,11,11,12,12,13,13,14,14,15,15,16,16,17,17,21,21,23,23,24,24,25,25,31,31,32,32],"right_children":[2,4,6,8,10,-1,12,-1,14,16,18,20,22,24,26,28,30,32,-1,-1,-1,34,-1,36,38,40,-1,-1,-1,-1,-1,42,44,-1,-1,-1,-1,-1,-1,-1,-1,-1,-1,-1,-1],"split_conditions":[3.9183742E-1,-4.9683237E0,9.106428E0,-1.7359425E1,2.0510635E0,-1.539906E-1,1.5973403E0,-1.2726325E-1,-1.5730103E0,1.1331035E-1,1.0127989E1,-1.9642291E0,-9.5220137E-1,2.8259152E-1,-9.8687136E-1,-5.420107E0,-3.5311258E0,-2.8890944E0,-1.3837048E-1,7.6737255E-3,2.6479402E-1,-1.788541E0,-1.3768211E-1,4.398385E1,1.0810359E1,-1.9756556E-1,-1.3925637E-1,5.878942E-2,-1.510675E-1,2.1067794E-1,-1.103513E-1,-7.9408174E0,2.9841787E-1,-1.0060611E-1,1.566529E-1,-1.3328263E-1,1.17854424E-1,2.9176927E-1,8.650291E-2,-9.048179E-2,1.5356718E-1,1.7441238E-1,-9.626478E-2,-1.03773855E-1,2.433966E-1],"split_indices":[0,22,10,10,10,0,12,0,20,5,8,24,19,0,19,23,20,20,0,0,0,19,0,9,13,17,0,0,0,0,0,25,0,0,0,0,0,0,0,0,0,0,0,0,0],"split_type":[0,0,0,0,0,0,0,0,0,0,0,0,0,0,0,0,0,0,0,0,0,0,0,0,0,0,0,0,0,0,0,0,0,0,0,0,0,0,0,0,0,0,0,0,0],"sum_hessian":[1.2668022E2,8.7036125E1,3.96441E1,4.7158497E1,3.9877625E1,2.7341951E1,1.2302149E1,3.5814762E0,4.3577023E1,1.8716015E1,2.116161E1,3.4701529E0,8.831995E0,3.8512135E1,5.064886E0,1.5594391E1,3.1216242E0,1.5118511E1,6.043099E0,1.5281113E0,1.9420416E0,2.8737683E0,5.958227E0,4.7812085E0,3.3730927E1,2.1570761E0,2.9078097E0,1.0468562E0,1.4547535E1,1.0121704E0,2.109454E0,6.2903323E0,8.828179E0,1.6345155E0,1.2392528E0,3.3977146E0,1.3834941E0,1.5474289E1,1.8256638E1,1.0117587E0,1.1453176E0,1.1542407E0,5.136091E0,1.7496446E0,7.0785346E0],"tree_param":{"num_deleted":"0","num_feature":"26","num_nodes":"45","size_leaf_vector":"0"}},{"base_weights":[-1.3893793E-2,-4.1169706E-1,1.6708565E-1,-4.5012906E-1,8.930343E-2,2.889856E-1,-1.9642277E-1,-6.948919E-3,-4.937761E-1,-3.4401798E-1,5.954868E-1,-4.715989E-1,3.853332E-1,-2.754892E-2,-4.727801E-1,-3.7144125E-1,5.69777E-1,-5.214823E-1,-7.394857E-2,5.29249E-1,-1.1066139E-1,-2.1674389E-1,6.9114196E-1,-3.031854E-1,2.2931416E-1,-4.406768E-1,6.1060303E-1,4.5375443E-1,-4.2900553E-1,1.4673974E-1,-4.8075005E-1,1.0328114E0,8.285481E-2,2.940932E-1,7.89258E-1,9.681228E-1,-3.8231236E-1,-5.120407E-1,1.0690041E-1,-3.9874417E-1,6.4429164E-1],"categories":[],"categories_nodes":[],"categories_segments":[],"categories_sizes":[],"default_left":[true,true,true,true,true,true,true,true,true,false,false,false,true,true,false,false,false,false,true,true,true,true,true,false,false,false,true,true,true,true,false,false,false,false,false,false,false,false,false,false,false],"id":33,"left_children":[1,3,5,7,9,11,13,15,17,-1,-1,-1,19,21,-1,-1,-1,-1,23,25,27,29,31,-1,-1,-1,33,35,37,39,-1,-1,-1,-1,-1,-1,-1,-1,-1,-1,-1],"loss_changes":[9.459039E0,8.310356E-1,4.060659E0,7.376628E-1,1.0297314E0,5.1699915E0,1.0737562E0,1.1469162E0,3.6695766E-1,0E0,0E0,0E0,4.410536E0,2.259563E0,0E0,0E0,0E0,0E0,3.005752E-1,4.0115833E0,2.806957E0,1.3222659E0,6.3605225E-1,0E0,0E0,0E0,2.265974E0,2.8338547E0,4.912609E-1,1.9543306E0,0E0,0E0,0E0,0E0,0E0,0E0,0E0,0E0,0E0,0E0,0E0],"parents":[2147483647,0,0,1,1,2,2,3,3,4,4,5,5,6,6,7,7,8,8,12,12,13,13,18,18,19,19,20,20,21,21,22,22,26,26,27,27,28,28,29,29],"right_children":[2,4,6,8,10,12,14,16,18,-1,-1,-1,20,22,-1,-1,-1,-1,24,26,28,30,32,-1,-1,-1,34,36,38,40,-1,-1,-1,-1,-1,-1,-1,-1,-1,-1,-1],"split_conditions":[8.997867E-2,2.368382E1,1.7875902E-1,-1.0776859E1,-2.6994824E0,3.405528E-1,2.8230996E3,3.3909497E0,2.8264835E1,-1.032054E-1,1.7864606E-1,-1.4147967E-1,5.1089973E0,4.2685494E0,-1.4183404E-1,-1.1143238E-1,1.7093311E-1,-1.564447E-1,-1.8952231E0,-4.817688E0,-1.597979E1,-4.4905563E1,6.649698E-1,-9.095562E-2,6.879425E-2,-1.3220304E-1,3.97121E-1,1.4298326E-1,6.2673597E0,3.3150985E0,-1.4422502E-1,3.0984342E-1,2.4856443E-2,8.822796E-2,2.3677741E-1,2.9043683E-1,-1.1469371E-1,-1.5361221E-1,3.2070123E-2,-1.1962325E-1,1.932875E-1],"split_indices":[5,13,1,10,18,0,3,23,8,0,0,0,21,12,0,0,0,0,24,25,10,6,21,0,0,0,0,5,23,19,0,0,0,0,0,0,0,0,0,0,0],"split_type":[0,0,0,0,0,0,0,0,0,0,0,0,0,0,0,0,0,0,0,0,0,0,0,0,0,0,0,0,0,0,0,0,0,0,0,0,0,0,0,0,0],"sum_hessian":[1.2943062E2,4.0073E1,8.9357605E1,3.7312298E1,2.7607043E0,6.707088E1,2.228673E1,3.4492068E0,3.3863094E1,1.6600107E0,1.1006936E0,7.103093E0,5.9967785E1,1.4516072E1,7.7706585E0,2.3315864E0,1.1176203E0,3.1539534E1,2.3235598E0,4.642907E1,1.3538714E1,1.2043932E1,2.4721396E0,1.323431E0,1.0001287E0,3.2511516E0,4.3177917E1,4.7289867E0,8.809728E0,5.254171E0,6.789761E0,1.136101E0,1.3360387E0,1.653328E1,2.664464E1,2.8299716E0,1.8990153E0,7.666401E0,1.1433268E0,2.6010904E0,2.6530807E0],"tree_param":{"num_deleted":"0","num_feature":"26","num_nodes":"41","size_leaf_vector":"0"}},{"base_weights":[-2.7080417E-2,-3.234295E-1,3.420429E-1,-4.7146767E-1,-1.1097613E-1,-1.7928095E-1,